{"learner":{"attributes":{},"feature_names":[],"feature_types":[],"gradient_booster":{"model":{"gbtree_model_param":{"num_parallel_tree":"1","num_trees":"300"},"iteration_indptr":[0,1,2,3,4,5,6,7,8,9,10,11,12,13,14,15,16,17,18,19,20,21,22,23,24,25,26,27,28,29,30,31,32,33,34,35,36,37,38,39,40,41,42,43,44,45,46,47,48,49,50,51,52,53,54,55,56,57,58,59,60,61,62,63,64,65,66,67,68,69,70,71,72,73,74,75,76,77,78,79,80,81,82,83,84,85,86,87,88,89,90,91,92,93,94,95,96,97,98,99,100,101,102,103,104,105,106,107,108,109,110,111,112,113,114,115,116,117,118,119,120,121,122,123,124,125,126,127,128,129,130,131,132,133,134,135,136,137,138,139,140,141,142,143,144,145,146,147,148,149,150,151,152,153,154,155,156,157,158,159,160,161,162,163,164,165,166,167,168,169,170,171,172,173,174,175,176,177,178,179,180,181,182,183,184,185,186,187,188,189,190,191,192,193,194,195,196,197,198,199,200,201,202,203,204,205,206,207,208,209,210,211,212,213,214,215,216,217,218,219,220,221,222,223,224,225,226,227,228,229,230,231,232,233,234,235,236,237,238,239,240,241,242,243,244,245,246,247,248,249,250,251,252,253,254,255,256,257,258,259,260,261,262,263,264,265,266,267,268,269,270,271,272,273,274,275,276,277,278,279,280,281,282,283,284,285,286,287,288,289,290,291,292,293,294,295,296,297,298,299,300],"tree_info":[0,0,0,0,0,0,0,0,0,0,0,0,0,0,0,0,0,0,0,0,0,0,0,0,0,0,0,0,0,0,0,0,0,0,0,0,0,0,0,0,0,0,0,0,0,0,0,0,0,0,0,0,0,0,0,0,0,0,0,0,0,0,0,0,0,0,0,0,0,0,0,0,0,0,0,0,0,0,0,0,0,0,0,0,0,0,0,0,0,0,0,0,0,0,0,0,0,0,0,0,0,0,0,0,0,0,0,0,0,0,0,0,0,0,0,0,0,0,0,0,0,0,0,0,0,0,0,0,0,0,0,0,0,0,0,0,0,0,0,0,0,0,0,0,0,0,0,0,0,0,0,0,0,0,0,0,0,0,0,0,0,0,0,0,0,0,0,0,0,0,0,0,0,0,0,0,0,0,0,0,0,0,0,0,0,0,0,0,0,0,0,0,0,0,0,0,0,0,0,0,0,0,0,0,0,0,0,0,0,0,0,0,0,0,0,0,0,0,0,0,0,0,0,0,0,0,0,0,0,0,0,0,0,0,0,0,0,0,0,0,0,0,0,0,0,0,0,0,0,0,0,0,0,0,0,0,0,0,0,0,0,0,0,0,0,0,0,0,0,0,0,0,0,0,0,0,0,0,0,0,0,0,0,0,0,0,0,0,0,0,0,0,0,0,0,0,0,0,0,0],"trees":[{"base_weights":[-3.0025686E-4,-1.2402302E4,2.7413172E5,-3.1179422E4,4.6848293E4,2.1733923E5,8.259022E5,-4.41265E4,-1.2827267E4,2.7310053E4,8.494179E4,1.7409834E5,3.1627475E5,1.6277269E6,7.601317E5,-5.18116E4,-3.6613164E4,-2.0683705E4,-2.3763872E3,9.102345E4,2.4878719E4,6.9392555E4,1.0831446E5,2.7160016E5,1.634348E5,2.799249E5,3.8539722E5,2.1886058E5,2.016028E6,7.387369E5,8.553518E5,-1.6727951E4,-1.4345254E4,-5.3207617E3,-1.1731646E4,4.338965E3,-6.9358105E3,9.105928E3,-1.711137E3,4.8268656E4,2.2361084E4,4.730796E3,1.1767142E4,5.199132E4,1.9741908E4,5.267403E4,3.0147525E4,2.7829484E4,8.550604E4,4.435201E4,6.107431E4,1.1800326E5,7.90908E4,1.5823994E5,1.0911753E5,4.0634678E5,8.013854E5,2.1571061E5,7.9051306E5],"categories":[],"categories_nodes":[],"categories_segments":[],"categories_sizes":[],"default_left":[0,0,0,0,0,0,0,0,0,0,0,0,0,0,0,0,0,0,0,0,0,0,0,0,0,0,0,0,0,0,0,0,0,0,0,0,0,0,0,0,0,0,0,0,0,0,0,0,0,0,0,0,0,0,0,0,0,0,0],"id":0,"left_children":[1,3,5,7,9,11,13,15,17,19,21,23,25,27,29,31,33,35,37,39,41,43,45,47,49,51,53,-1,55,57,-1,-1,-1,-1,-1,-1,-1,-1,-1,-1,-1,-1,-1,-1,-1,-1,-1,-1,-1,-1,-1,-1,-1,-1,-1,-1,-1,-1,-1],"loss_changes":[2.0988042E14,6.5708994E13,8.355139E13,1.0655621E13,1.0576133E13,1.0314951E13,1.1894073E13,1.5164548E12,1.5232763E12,1.4532561E12,1.7434736E12,1.7116871E12,1.7413911E12,4.807079E12,8.272845E12,2.0229338E11,6.2504776E11,9.0698836E11,8.673768E11,3.8542875E11,1.1822521E12,1.0677838E12,9.942367E11,3.6955488E11,9.246595E11,7.941747E11,5.8096144E11,0E0,1.583505E12,6.73549E12,0E0,0E0,0E0,0E0,0E0,0E0,0E0,0E0,0E0,0E0,0E0,0E0,0E0,0E0,0E0,0E0,0E0,0E0,0E0,0E0,0E0,0E0,0E0,0E0,0E0,0E0,0E0,0E0,0E0],"parents":[2147483647,0,0,1,1,2,2,3,3,4,4,5,5,6,6,7,7,8,8,9,9,10,10,11,11,12,12,13,13,14,14,15,15,16,16,17,17,18,18,19,19,20,20,21,21,22,22,23,23,24,24,25,25,26,26,28,28,29,29],"right_children":[2,4,6,8,10,12,14,16,18,20,22,24,26,28,30,32,34,36,38,40,42,44,46,48,50,52,54,-1,56,58,-1,-1,-1,-1,-1,-1,-1,-1,-1,-1,-1,-1,-1,-1,-1,-1,-1,-1,-1,-1,-1,-1,-1,-1,-1,-1,-1,-1,-1],"split_conditions":[1.8863822E5,6.4260355E4,5.1668725E5,2.7378617E4,1.0977242E5,2.9382803E5,5.363336E4,1.19353E4,4.4561918E4,2.71164E4,1.4311602E5,1.4452438E5,3.912932E5,3.7255875E5,5.4590825E6,5.09798E3,3.1822E3,4.6454E3,3.046847E4,4.220193E4,8.676815E4,3.941627E4,1.0973388E5,2E0,2.4678011E5,2.293638E5,3.4305266E5,2.1886058E5,2.022E3,5.4590825E6,8.553518E5,-1.6727951E4,-1.4345254E4,-5.3207617E3,-1.1731646E4,4.338965E3,-6.9358105E3,9.105928E3,-1.711137E3,4.8268656E4,2.2361084E4,4.730796E3,1.1767142E4,5.199132E4,1.9741908E4,5.267403E4,3.0147525E4,2.7829484E4,8.550604E4,4.435201E4,6.107431E4,1.1800326E5,7.90908E4,1.5823994E5,1.0911753E5,4.0634678E5,8.013854E5,2.1571061E5,7.9051306E5],"split_indices":[3,3,3,3,3,3,2,3,3,1,3,1,3,4,1,3,1,1,1,0,3,1,1,5,3,1,1,0,6,0,0,0,0,0,0,0,0,0,0,0,0,0,0,0,0,0,0,0,0,0,0,0,0,0,0,0,0,0,0],"split_type":[0,0,0,0,0,0,0,0,0,0,0,0,0,0,0,0,0,0,0,0,0,0,0,0,0,0,0,0,0,0,0,0,0,0,0,0,0,0,0,0,0,0,0,0,0,0,0,0,0,0,0,0,0,0,0,0,0,0,0],"sum_hessian":[6.173E4,5.9059E4,2.671E3,4.4847E4,1.4212E4,2.423E3,2.48E2,2.6295E4,1.8552E4,9.395E3,4.817E3,1.688E3,7.35E2,1.7E1,2.31E2,1.2996E4,1.3299E4,1.059E4,7.962E3,3.44E2,9.051E3,2.895E3,1.922E3,1.64E2,1.524E3,4.85E2,2.5E2,6E0,1.1E1,2.3E2,1E0,6.529E3,6.467E3,1.552E3,1.1747E4,6.86E2,9.904E3,7.34E2,7.228E3,6.4E1,2.8E2,5.537E3,3.514E3,9.5E1,2.8E3,1.98E2,1.724E3,1.2E1,1.52E2,1.101E3,4.23E2,5.8E1,4.27E2,3E1,2.2E2,7E0,4E0,2.29E2,1E0],"tree_param":{"num_deleted":"0","num_feature":"17","num_nodes":"59","size_leaf_vector":"1"}},{"base_weights":[6.7545494E1,-9.866667E3,1.7146353E5,-2.3811932E4,2.5063678E4,1.3804938E5,5.91337E5,-3.289426E4,-1.3478394E4,1.3518184E4,5.1481336E4,1.0704604E5,2.0942728E5,1.2186639E6,5.401162E5,-3.765165E4,-2.8897867E4,6.92772E3,-1.5431719E4,4.3421547E4,1.1047322E4,1.0030856E5,4.7168777E4,2.6205625E5,1.0329659E5,1.7154688E5,2.458485E5,5.4194044E5,1.5118639E6,5.2147172E5,7.27049E5,-1.2202187E4,-1.0735975E4,-3.1421167E3,-9.0375E3,1.0135738E4,-4.3154868E2,-6.358991E3,-2.7888425E3,2.990238E4,1.1075917E4,8.485579E2,6.087016E3,5.8975137E4,2.663593E4,1.1308855E4,1.858146E4,1.0151713E5,5.073992E4,2.7280566E4,3.83883E4,5.4356656E4,8.9343955E3,7.6827875E4,3.3630766E4,1.9048803E5,6.1878285E4,2.9968075E5,6.090529E5,1.5127878E5,6.719361E5],"categories":[],"categories_nodes":[],"categories_segments":[],"categories_sizes":[],"default_left":[0,0,0,0,0,0,0,0,0,0,0,0,0,0,0,0,0,0,0,0,0,0,0,0,0,0,0,0,0,0,0,0,0,0,0,0,0,0,0,0,0,0,0,0,0,0,0,0,0,0,0,0,0,0,0,0,0,0,0,0,0],"id":1,"left_children":[1,3,5,7,9,11,13,15,17,19,21,23,25,27,29,31,33,35,37,39,41,43,45,47,49,51,53,55,57,59,-1,-1,-1,-1,-1,-1,-1,-1,-1,-1,-1,-1,-1,-1,-1,-1,-1,-1,-1,-1,-1,-1,-1,-1,-1,-1,-1,-1,-1,-1,-1],"loss_changes":[1.0511008E14,2.8423636E13,4.736687E13,3.9133968E12,5.077331E12,6.912972E12,7.3426996E12,4.2087324E11,7.7773144E11,8.556494E11,1.06138645E12,1.2440201E12,1.2657361E12,2.7521366E12,6.8828193E12,5.564059E10,2.72484E11,3.8316284E11,6.295852E11,3.1964096E11,8.130623E11,4.3735712E11,6.4878123E11,3.0452115E11,6.399061E11,6.34313E11,6.303347E11,8.76059E10,1.1622668E12,5.701397E12,0E0,0E0,0E0,0E0,0E0,0E0,0E0,0E0,0E0,0E0,0E0,0E0,0E0,0E0,0E0,0E0,0E0,0E0,0E0,0E0,0E0,0E0,0E0,0E0,0E0,0E0,0E0,0E0,0E0,0E0,0E0],"parents":[2147483647,0,0,1,1,2,2,3,3,4,4,5,5,6,6,7,7,8,8,9,9,10,10,11,11,12,12,13,13,14,14,15,15,16,16,17,17,18,18,19,19,20,20,21,21,22,22,23,23,24,24,25,25,26,26,27,27,28,28,29,29],"right_children":[2,4,6,8,10,12,14,16,18,20,22,24,26,28,30,32,34,36,38,40,42,44,46,48,50,52,54,56,58,60,-1,-1,-1,-1,-1,-1,-1,-1,-1,-1,-1,-1,-1,-1,-1,-1,-1,-1,-1,-1,-1,-1,-1,-1,-1,-1,-1,-1,-1,-1,-1],"split_conditions":[1.6794227E5,5.543353E4,5.1668725E5,2.221146E4,1.0253044E5,2.7030575E5,5.363336E4,8.848446E3,1.294518E4,3.988991E4,7.598619E4,5.187702E4,3.3447934E5,3.7255875E5,5.4590825E6,2.5430767E3,1.44597E3,1.141597E4,3.675351E4,3.465925E4,7.474877E4,7.081392E4,1.3218255E5,2.232512E5,2.181374E5,4.1438038E5,5.62042E5,1.3351486E5,2.022E3,5.4590825E6,7.27049E5,-1.2202187E4,-1.0735975E4,-3.1421167E3,-9.0375E3,1.0135738E4,-4.3154868E2,-6.358991E3,-2.7888425E3,2.990238E4,1.1075917E4,8.485579E2,6.087016E3,5.8975137E4,2.663593E4,1.1308855E4,1.858146E4,1.0151713E5,5.073992E4,2.7280566E4,3.83883E4,5.4356656E4,8.9343955E3,7.6827875E4,3.3630766E4,1.9048803E5,6.1878285E4,2.9968075E5,6.090529E5,1.5127878E5,6.719361E5],"split_indices":[3,3,3,3,3,3,2,3,1,1,1,1,3,4,1,3,0,0,3,0,3,0,3,0,3,0,1,1,6,0,0,0,0,0,0,0,0,0,0,0,0,0,0,0,0,0,0,0,0,0,0,0,0,0,0,0,0,0,0,0,0],"split_type":[0,0,0,0,0,0,0,0,0,0,0,0,0,0,0,0,0,0,0,0,0,0,0,0,0,0,0,0,0,0,0,0,0,0,0,0,0,0,0,0,0,0,0,0,0,0,0,0,0,0,0,0,0,0,0,0,0,0,0,0,0],"sum_hessian":[6.173E4,5.8349E4,3.381E3,4.1701E4,1.6648E4,3.133E3,2.48E2,2.2193E4,1.9508E4,1.1586E4,5.062E3,2.186E3,9.47E2,1.7E1,2.31E2,1.0128E4,1.2065E4,1.704E3,1.7804E4,8.83E2,1.0703E4,4.09E2,4.653E3,5E1,2.136E3,4.67E2,4.8E2,6E0,1.1E1,2.3E2,1E0,3.857E3,6.271E3,7.54E2,1.1311E4,4.04E2,1.3E3,9.178E3,8.626E3,9E1,7.93E2,5.666E3,5.037E3,4.2E1,3.67E2,2.837E3,1.816E3,2.6E1,2.4E1,1.426E3,7.1E2,4.37E2,3E1,4.45E2,3.5E1,4E0,2E0,7E0,4E0,2.29E2,1E0],"tree_param":{"num_deleted":"0","num_feature":"17","num_nodes":"61","size_leaf_vector":"1"}},{"base_weights":[9.963616E1,-5.487826E3,1.5317138E5,-1.4463642E4,2.8191438E4,1.1797154E5,4.248249E5,-2.081622E4,-3.1141877E3,1.830852E4,5.0334457E4,9.9810195E4,1.7232358E5,4.0992522E5,6.179916E5,-2.490621E4,-1.560189E4,1.7009965E4,-4.7723945E3,4.788488E4,1.5389798E4,9.639721E4,4.563644E4,1.8680564E5,9.136456E4,3.813941E5,1.6570112E5,9.1757025E5,3.685939E5,-8.181277E3,-6.906705E3,1.3343602E3,-4.943509E3,1.3824003E4,2.7476687E3,-2.76465E3,2.5191734E2,2.3279695E4,1.1135625E4,2.8478535E3,6.9176235E3,4.962725E4,2.5064828E4,1.4474839E4,-6.4413306E2,1.2213667E5,4.934865E4,1.2634144E4,2.9612076E4,6.365028E4,1.355504E5,4.059514E4,5.770169E4,1.5877739E5,4.0104103E5,1.0609246E5,5.711456E5],"categories":[],"categories_nodes":[],"categories_segments":[],"categories_sizes":[],"default_left":[0,0,0,0,0,0,0,0,0,0,0,0,0,0,0,0,0,0,0,0,0,0,0,0,0,0,0,0,0,0,0,0,0,0,0,0,0,0,0,0,0,0,0,0,0,0,0,0,0,0,0,0,0,0,0,0,0],"id":2,"left_children":[1,3,5,7,9,11,13,15,17,19,21,23,25,27,-1,29,31,33,35,37,39,41,43,45,47,49,51,53,55,-1,-1,-1,-1,-1,-1,-1,-1,-1,-1,-1,-1,-1,-1,-1,-1,-1,-1,-1,-1,-1,-1,-1,-1,-1,-1,-1,-1],"loss_changes":[5.2798293E13,1.8004723E13,2.0738019E13,3.390431E12,2.7417714E12,1.8839681E12,5.2219924E12,6.426083E11,5.6326685E11,7.4744306E11,8.324341E11,1.0453548E12,6.02776E11,4.8652375E12,0E0,7.463449E10,2.3302111E11,2.9285466E11,3.8882276E11,2.4600642E11,3.5659383E11,3.0278183E11,4.384846E11,5.5727306E11,4.7317516E11,7.102097E10,3.527546E11,2.2227672E12,4.629396E12,0E0,0E0,0E0,0E0,0E0,0E0,0E0,0E0,0E0,0E0,0E0,0E0,0E0,0E0,0E0,0E0,0E0,0E0,0E0,0E0,0E0,0E0,0E0,0E0,0E0,0E0,0E0,0E0],"parents":[2147483647,0,0,1,1,2,2,3,3,4,4,5,5,6,6,7,7,8,8,9,9,10,10,11,11,12,12,13,13,15,15,16,16,17,17,18,18,19,19,20,20,21,21,22,22,23,23,24,24,25,25,26,26,27,27,28,28],"right_children":[2,4,6,8,10,12,14,16,18,20,22,24,26,28,-1,30,32,34,36,38,40,42,44,46,48,50,52,54,56,-1,-1,-1,-1,-1,-1,-1,-1,-1,-1,-1,-1,-1,-1,-1,-1,-1,-1,-1,-1,-1,-1,-1,-1,-1,-1,-1,-1],"split_conditions":[2.067714E5,7.1302086E4,5.1668725E5,3.2842047E4,1.2394018E5,3.3447934E5,5.4590825E6,1.61893E4,2.088354E4,5.56594E4,9.860777E4,1.4942864E5,1.7221116E5,5.363336E4,6.179916E5,6.108427E3,5.50986E3,2.407335E4,5.0728715E4,7.352661E4,9.475542E4,1.0747283E5,2.293638E5,1.345617E5,3E0,2.0102438E5,3.912932E5,4.792059E5,5.4590825E6,-8.181277E3,-6.906705E3,1.3343602E3,-4.943509E3,1.3824003E4,2.7476687E3,-2.76465E3,2.5191734E2,2.3279695E4,1.1135625E4,2.8478535E3,6.9176235E3,4.962725E4,2.5064828E4,1.4474839E4,-6.4413306E2,1.2213667E5,4.934865E4,1.2634144E4,2.9612076E4,6.365028E4,1.355504E5,4.059514E4,5.770169E4,1.5877739E5,4.0104103E5,1.0609246E5,5.711456E5],"split_indices":[3,3,3,3,3,3,1,3,1,1,1,1,1,2,0,3,0,0,3,0,3,0,1,0,5,4,3,4,0,0,0,0,0,0,0,0,0,0,0,0,0,0,0,0,0,0,0,0,0,0,0,0,0,0,0,0,0],"split_type":[0,0,0,0,0,0,0,0,0,0,0,0,0,0,0,0,0,0,0,0,0,0,0,0,0,0,0,0,0,0,0,0,0,0,0,0,0,0,0,0,0,0,0,0,0,0,0,0,0,0,0,0,0,0,0,0,0],"sum_hessian":[6.173E4,5.9557E4,2.173E3,4.7025E4,1.2532E4,1.925E3,2.48E2,3.0149E4,1.6876E4,8.666E3,3.866E3,1.445E3,4.8E2,2.47E2,1E0,1.6894E4,1.3255E4,1.284E3,1.5592E4,7.77E2,7.889E3,3.56E2,3.51E3,1.26E2,1.319E3,1.3E1,4.67E2,1.7E1,2.3E2,7.485E3,9.409E3,5.55E2,1.27E4,2.72E2,1.012E3,8.702E3,6.89E3,2.05E2,5.72E2,4.461E3,3.428E3,5.4E1,3.02E2,3.328E3,1.82E2,1E1,1.16E2,1.72E2,1.147E3,5E0,8E0,2.21E2,2.46E2,1E1,7E0,2.29E2,1E0],"tree_param":{"num_deleted":"0","num_feature":"17","num_nodes":"57","size_leaf_vector":"1"}},{"base_weights":[1.1015175E2,-5.1460493E3,8.429047E4,-1.1487203E4,1.2372016E4,6.7211875E4,3.0711084E5,-1.6792982E4,-6.6952065E3,5.3490176E3,2.0857498E4,5.727164E5,6.583906E4,2.9467956E5,5.252929E5,-1.3283314E4,-1.7914342E4,3.4116848E3,-7.8907393E3,7.5540537E3,-1.2069437E4,5.0451355E4,1.8036652E4,2.795883E5,2.6076883E5,5.261097E4,1.0003198E5,9.858925E5,2.7138203E5,-5.7517144E3,-2.3570842E3,-5.73371E3,-4.557444E3,4.8551543E3,-3.322536E2,-3.2204734E3,-1.0665828E3,9.558633E3,1.9389047E3,-1.8525907E3,-6.5396733E3,2.2728031E4,1.080247E4,5.827251E3,-6.919318E3,9.141124E4,2.3101389E4,1.6876145E4,-5.183617E3,6.3857293E4,2.7371469E4,6.2663525E5,8.1039375E4,7.784219E4,4.854738E5],"categories":[],"categories_nodes":[],"categories_segments":[],"categories_sizes":[],"default_left":[0,0,0,0,0,0,0,0,0,0,0,0,0,0,0,0,0,0,0,0,0,0,0,0,0,0,0,0,0,0,0,0,0,0,0,0,0,0,0,0,0,0,0,0,0,0,0,0,0,0,0,0,0,0,0],"id":3,"left_children":[1,3,5,7,9,11,13,15,17,19,21,23,25,27,-1,29,31,33,35,37,39,41,43,45,-1,47,49,51,53,-1,-1,-1,-1,-1,-1,-1,-1,-1,-1,-1,-1,-1,-1,-1,-1,-1,-1,-1,-1,-1,-1,-1,-1,-1,-1],"loss_changes":[2.7314467E13,6.454611E12,1.3785568E13,1.0845804E12,9.20191E11,2.3016338E12,4.1148932E12,7.9438545E10,2.7090643E11,3.246799E11,5.828638E11,5.3922025E11,1.5158445E12,3.8710595E12,0E0,1.5662671E11,4.974864E10,1.3692955E11,2.4715749E11,1.987548E11,5.4344876E10,2.1951873E11,3.6463156E11,7.0646825E9,0E0,6.188795E11,9.102342E11,5.751012E12,3.5897454E12,0E0,0E0,0E0,0E0,0E0,0E0,0E0,0E0,0E0,0E0,0E0,0E0,0E0,0E0,0E0,0E0,0E0,0E0,0E0,0E0,0E0,0E0,0E0,0E0,0E0,0E0],"parents":[2147483647,0,0,1,1,2,2,3,3,4,4,5,5,6,6,7,7,8,8,9,9,10,10,11,11,12,12,13,13,15,15,16,16,17,17,18,18,19,19,20,20,21,21,22,22,23,23,25,25,26,26,27,27,28,28],"right_children":[2,4,6,8,10,12,14,16,18,20,22,24,26,28,-1,30,32,34,36,38,40,42,44,46,-1,48,50,52,54,-1,-1,-1,-1,-1,-1,-1,-1,-1,-1,-1,-1,-1,-1,-1,-1,-1,-1,-1,-1,-1,-1,-1,-1,-1,-1],"split_conditions":[1.6254372E5,5.793338E4,4.792059E5,1.9985994E4,8.920363E4,2.5E1,5.4590825E6,2.84E1,1.503419E4,9.08524E4,7.031476E4,3.3447934E5,2.7030575E5,1.102022E4,5.252929E5,3.7242869E3,1.4099227E4,1.652292E4,3.9694785E4,4.93649E4,1.0546282E5,1.0209978E5,1.876258E5,2.84E1,2.6076883E5,2.9739303E5,1.876258E5,5E0,5.4590825E6,-5.7517144E3,-2.3570842E3,-5.73371E3,-4.557444E3,4.8551543E3,-3.322536E2,-3.2204734E3,-1.0665828E3,9.558633E3,1.9389047E3,-1.8525907E3,-6.5396733E3,2.2728031E4,1.080247E4,5.827251E3,-6.919318E3,9.141124E4,2.3101389E4,1.6876145E4,-5.183617E3,6.3857293E4,2.7371469E4,6.2663525E5,8.1039375E4,7.784219E4,4.854738E5],"split_indices":[3,3,4,3,3,0,1,1,1,1,1,3,3,2,0,3,3,0,3,0,1,0,1,1,0,1,1,5,0,0,0,0,0,0,0,0,0,0,0,0,0,0,0,0,0,0,0,0,0,0,0,0,0,0,0],"split_type":[0,0,0,0,0,0,0,0,0,0,0,0,0,0,0,0,0,0,0,0,0,0,0,0,0,0,0,0,0,0,0,0,0,0,0,0,0,0,0,0,0,0,0,0,0,0,0,0,0,0,0,0,0,0,0],"sum_hessian":[6.173E4,5.8103E4,3.627E3,4.2661E4,1.5442E4,3.37E3,2.57E2,2.0244E4,2.2417E4,8.45E3,6.992E3,8E0,3.362E3,2.56E2,1E0,4.905E3,1.5339E4,2.371E3,2.0046E4,7.501E3,9.49E2,6.07E2,6.385E3,5E0,3E0,2.426E3,9.36E2,7E0,2.49E2,2.351E3,2.554E3,1.0648E4,4.691E3,6.19E2,1.752E3,1.2104E4,7.942E3,3.21E2,7.18E3,5.92E2,3.57E2,2.19E2,3.88E2,6.177E3,2.08E2,4E0,1E0,2.306E3,1.2E2,6.6E1,8.7E2,2E0,5E0,2.48E2,1E0],"tree_param":{"num_deleted":"0","num_feature":"17","num_nodes":"55","size_leaf_vector":"1"}},{"base_weights":[1.1423264E2,-2.4297754E3,8.995057E4,-6.7991577E3,1.686431E4,6.660879E4,2.2570283E5,-1.0538711E4,-1.2842014E3,1.211088E4,3.2020053E4,1.697951E4,7.4294336E4,2.1461025E5,4.4649894E5,-1.2382632E4,-8.2459375E3,9.518317E3,-2.4863645E3,1.4367034E4,-8.052149E3,6.5818195E4,2.672003E4,2.625207E4,-8.219932E4,1.3581923E5,6.7137836E4,2.043414E5,4.1265275E5,-3.0442515E3,-3.9701853E3,-6.2306384E2,-2.8218542E3,7.4014136E3,1.4640845E3,-5.136714E2,-4.618262E3,1.2937004E4,3.8612542E3,-7.3866567E3,-6.356546E1,2.4247838E4,6.6553667E3,8.725039E3,-7.430349E3,2.5693367E3,1.432936E4,-3.7841426E4,-1.7693033E4,6.985164E4,3.1697043E4,1.72455E4,3.309562E4,9.338131E4,3.1713104E4],"categories":[],"categories_nodes":[],"categories_segments":[],"categories_sizes":[],"default_left":[0,0,0,0,0,0,0,0,0,0,0,0,0,0,0,0,0,0,0,0,0,0,0,0,0,0,0,0,0,0,0,0,0,0,0,0,0,0,0,0,0,0,0,0,0,0,0,0,0,0,0,0,0,0,0],"id":4,"left_children":[1,3,5,7,9,11,13,15,17,19,21,23,25,27,-1,29,31,33,35,37,39,41,43,45,47,49,51,53,-1,-1,-1,-1,-1,-1,-1,-1,-1,-1,-1,-1,-1,-1,-1,-1,-1,-1,-1,-1,-1,-1,-1,-1,-1,-1,-1],"loss_changes":[1.4108492E13,5.0610066E12,5.371753E12,1.0094644E12,7.981952E11,5.525723E11,3.168026E12,1.2321502E11,2.5689447E11,3.8405892E11,4.7222175E11,1.8240766E11,5.4434254E11,2.675362E12,0E0,3.062471E10,9.306512E10,1.3910514E11,1.7783665E11,3.2604645E11,1.10421254E11,2.326435E11,2.7926436E11,6.8081672E10,9.907085E9,3.5582378E11,4.638292E11,2.5721003E12,0E0,0E0,0E0,0E0,0E0,0E0,0E0,0E0,0E0,0E0,0E0,0E0,0E0,0E0,0E0,0E0,0E0,0E0,0E0,0E0,0E0,0E0,0E0,0E0,0E0,0E0,0E0],"parents":[2147483647,0,0,1,1,2,2,3,3,4,4,5,5,6,6,7,7,8,8,9,9,10,10,11,11,12,12,13,13,15,15,16,16,17,17,18,18,19,19,20,20,21,21,22,22,23,23,24,24,25,25,26,26,27,27],"right_children":[2,4,6,8,10,12,14,16,18,20,22,24,26,28,-1,30,32,34,36,38,40,42,44,46,48,50,52,54,-1,-1,-1,-1,-1,-1,-1,-1,-1,-1,-1,-1,-1,-1,-1,-1,-1,-1,-1,-1,-1,-1,-1,-1,-1,-1,-1],"split_conditions":[2.280599E5,7.888833E4,5.1668725E5,3.1383629E4,1.478623E5,3E0,5.4590825E6,1.5342323E4,2.53885E4,1.4028742E5,1.2740161E5,5.490732E5,1.876258E5,5.4590825E6,4.4649894E5,2.84E1,1.173901E4,3.012531E4,8.177188E4,4.612731E4,1.19165086E5,2.1333467E5,2.6932238E5,2.914743E5,1E0,2.232512E5,3.912932E5,7E0,4.1265275E5,-3.0442515E3,-3.9701853E3,-6.2306384E2,-2.8218542E3,7.4014136E3,1.4640845E3,-5.136714E2,-4.618262E3,1.2937004E4,3.8612542E3,-7.3866567E3,-6.356546E1,2.4247838E4,6.6553667E3,8.725039E3,-7.430349E3,2.5693367E3,1.432936E4,-3.7841426E4,-1.7693033E4,6.985164E4,3.1697043E4,1.72455E4,3.309562E4,9.338131E4,3.1713104E4],"split_indices":[3,3,3,3,3,5,1,3,1,1,1,0,1,0,0,1,1,0,1,1,3,0,1,2,7,0,3,5,0,0,0,0,0,0,0,0,0,0,0,0,0,0,0,0,0,0,0,0,0,0,0,0,0,0,0],"split_type":[0,0,0,0,0,0,0,0,0,0,0,0,0,0,0,0,0,0,0,0,0,0,0,0,0,0,0,0,0,0,0,0,0,0,0,0,0,0,0,0,0,0,0,0,0,0,0,0,0,0,0,0,0,0,0],"sum_hessian":[6.173E4,6.0031E4,1.699E3,4.8947E4,1.1084E4,1.451E3,2.48E2,2.9168E4,1.9779E4,8.439E3,2.645E3,1.95E2,1.256E3,2.47E2,1E0,1.6164E4,1.3004E4,1.98E3,1.7799E4,7.59E3,8.49E2,3.57E2,2.288E3,1.79E2,1.6E1,1.29E2,1.127E3,2.46E2,1E0,4.462E3,1.1702E4,2.059E3,1.0945E4,4.63E2,1.517E3,1.6793E4,1.006E3,3.74E2,7.216E3,2.72E2,5.77E2,2.65E2,9.2E1,2.188E3,1E2,9.9E1,8E1,4E0,1.2E1,2.9E1,1E2,9.23E2,2.04E2,1.17E2,1.29E2],"tree_param":{"num_deleted":"0","num_feature":"17","num_nodes":"55","size_leaf_vector":"1"}},{"base_weights":[9.830522E1,-2.2986792E3,4.869048E4,-6.410454E3,5.9795337E3,3.7183754E4,1.66468E5,-8.531998E3,-4.4619155E3,3.402305E3,1.6433752E4,4.3023922E5,3.597768E4,1.0859596E3,2.3681789E5,-1.1858385E4,-7.9838657E3,-3.8082937E3,-1.589273E4,1.4617444E4,1.775652E3,1.8909592E4,-1.955678E4,2.777067E4,1.5821038E5,3.837794E4,-8.652934E4,5.7200684E4,-9.060429E4,-9.270393E4,2.7603778E5,-3.7803284E3,-3.2922253E3,-1.3224935E3,-2.703215E3,-1.4352059E3,3.550564E1,-3.920738E3,-6.094332E3,1.1776576E4,3.3949653E3,8.256833E2,-4.307723E3,1.2975107E4,4.4354985E3,-1.4059841E4,-1.9770834E3,9.688295E3,2.0650248E4,-8.173676E4,-1.9472664E4,-4.9535347E3,2.0361043E4,7.483358E4,-3.327951E4,-6.6251625E4,3.336754E3,1.308534E5,4.9269195E4],"categories":[],"categories_nodes":[],"categories_segments":[],"categories_sizes":[],"default_left":[0,0,0,0,0,0,0,0,0,0,0,0,0,0,0,0,0,0,0,0,0,0,0,0,0,0,0,0,0,0,0,0,0,0,0,0,0,0,0,0,0,0,0,0,0,0,0,0,0,0,0,0,0,0,0,0,0,0,0],"id":5,"left_children":[1,3,5,7,9,11,13,15,17,19,21,23,25,27,29,31,33,35,37,39,41,43,45,-1,-1,47,49,51,53,55,57,-1,-1,-1,-1,-1,-1,-1,-1,-1,-1,-1,-1,-1,-1,-1,-1,-1,-1,-1,-1,-1,-1,-1,-1,-1,-1,-1,-1],"loss_changes":[7.1902104E12,2.0025024E12,3.926698E12,1.6245378E11,5.2597745E11,1.2383955E12,3.0014723E12,3.4214248E10,1.5303659E11,2.8573457E11,3.4441114E11,2.1356177E11,7.79022E11,4.0650614E11,2.364798E12,1.608745E9,5.9285373E10,7.426707E10,1.3568082E10,1.6090815E11,2.1561911E11,3.6209073E11,8.786373E10,0E0,0E0,4.7729266E11,1.8732584E11,3.9657783E10,2.3504114E11,2.6853191E11,2.828947E12,0E0,0E0,0E0,0E0,0E0,0E0,0E0,0E0,0E0,0E0,0E0,0E0,0E0,0E0,0E0,0E0,0E0,0E0,0E0,0E0,0E0,0E0,0E0,0E0,0E0,0E0,0E0,0E0],"parents":[2147483647,0,0,1,1,2,2,3,3,4,4,5,5,6,6,7,7,8,8,9,9,10,10,11,11,12,12,13,13,14,14,15,15,16,16,17,17,18,18,19,19,20,20,21,21,22,22,25,25,26,26,27,27,28,28,29,29,30,30],"right_children":[2,4,6,8,10,12,14,16,18,20,22,24,26,28,30,32,34,36,38,40,42,44,46,-1,-1,48,50,52,54,56,58,-1,-1,-1,-1,-1,-1,-1,-1,-1,-1,-1,-1,-1,-1,-1,-1,-1,-1,-1,-1,-1,-1,-1,-1,-1,-1,-1,-1],"split_conditions":[1.8186506E5,4.9681625E4,4.792059E5,1.8363977E4,1.16713305E5,2.5E1,5.490732E5,1.4927766E3,5.316735E4,4.564684E4,1.9450423E5,2.4678011E5,5.62042E5,5.1668725E5,3E0,5.3025665E2,8.1274E2,4.0525137E4,6.198266E4,4.220193E4,1.1903657E5,1.0546282E5,2E0,2.777067E4,1.5821038E5,3.3447934E5,5.025769E4,3.912932E5,4.0429347E5,1E0,7E0,-3.7803284E3,-3.2922253E3,-1.3224935E3,-2.703215E3,-1.4352059E3,3.550564E1,-3.920738E3,-6.094332E3,1.1776576E4,3.3949653E3,8.256833E2,-4.307723E3,1.2975107E4,4.4354985E3,-1.4059841E4,-1.9770834E3,9.688295E3,2.0650248E4,-8.173676E4,-1.9472664E4,-4.9535347E3,2.0361043E4,7.483358E4,-3.327951E4,-6.6251625E4,3.336754E3,1.308534E5,4.9269195E4],"split_indices":[3,3,4,3,3,0,0,3,1,1,0,3,1,3,5,3,1,3,1,0,1,1,5,0,0,3,2,3,2,7,5,0,0,0,0,0,0,0,0,0,0,0,0,0,0,0,0,0,0,0,0,0,0,0,0,0,0,0,0],"split_type":[0,0,0,0,0,0,0,0,0,0,0,0,0,0,0,0,0,0,0,0,0,0,0,0,0,0,0,0,0,0,0,0,0,0,0,0,0,0,0,0,0,0,0,0,0,0,0,0,0,0,0,0,0,0,0,0,0,0,0],"sum_hessian":[6.173E4,5.8829E4,2.901E3,3.9306E4,1.9523E4,2.644E3,2.57E2,1.8816E4,2.049E4,1.5663E4,3.86E3,7E0,2.637E3,7.7E1,1.8E2,2.659E3,1.6157E4,1.9383E4,1.107E3,1.983E3,1.368E4,3.612E3,2.48E2,2E0,5E0,2.587E3,5E1,4.8E1,2.9E1,1.9E1,1.61E2,1.438E3,1.221E3,3.606E3,1.2551E4,1.5525E4,3.858E3,6.78E2,4.29E2,2.33E2,1.75E3,1.29E4,7.8E2,5.22E2,3.09E3,7.9E1,1.69E2,2.158E3,4.29E2,4E0,4.6E1,6E0,4.2E1,1E0,2.8E1,8E0,1.1E1,6.5E1,9.6E1],"tree_param":{"num_deleted":"0","num_feature":"17","num_nodes":"59","size_leaf_vector":"1"}},{"base_weights":[7.334717E1,-1.1271143E3,5.044339E4,-3.9124402E3,7.878148E3,4.8750875E4,3.721337E5,-5.682247E3,-1.968184E3,-1.1400339E4,9.241135E3,4.718966E4,3.4336444E5,-5.441022E3,-1.3075411E4,-1.1986204E3,-1.1893773E4,-9.927255E3,-2.59156E4,6.3155376E3,1.7815488E4,2.8987412E5,4.3205984E4,-2.1610845E3,-1.3051621E3,-3.336222E3,-5.0463193E3,1.1924927E3,-6.479878E2,-3.209582E3,-8.1913584E3,3.1601566E2,-5.198748E3,4.5190757E3,1.2285356E3,8.493794E3,2.2495269E3,4.5895402E4,1.7427281E5,9.698804E3,2.795638E4],"categories":[],"categories_nodes":[],"categories_segments":[],"categories_sizes":[],"default_left":[0,0,0,0,0,0,0,0,0,0,0,0,0,0,0,0,0,0,0,0,0,0,0,0,0,0,0,0,0,0,0,0,0,0,0,0,0,0,0,0,0],"id":6,"left_children":[1,3,5,7,9,11,-1,13,15,17,19,21,-1,23,25,27,29,31,-1,33,35,37,39,-1,-1,-1,-1,-1,-1,-1,-1,-1,-1,-1,-1,-1,-1,-1,-1,-1,-1],"loss_changes":[3.7327633E12,1.5123855E12,2.8337795E12,1.5845183E11,3.743854E11,2.4026646E12,0E0,4.292169E10,1.6761748E11,1.03084564E11,3.336198E11,1.374799E12,0E0,4.48434E10,5.384626E9,1.0131045E11,2.8790555E10,7.511882E10,0E0,1.9264707E11,3.6627448E11,8.274421E11,7.6514433E11,0E0,0E0,0E0,0E0,0E0,0E0,0E0,0E0,0E0,0E0,0E0,0E0,0E0,0E0,0E0,0E0,0E0,0E0],"parents":[2147483647,0,0,1,1,2,2,3,3,4,4,5,5,7,7,8,8,9,9,10,10,11,11,13,13,14,14,15,15,16,16,17,17,19,19,20,20,21,21,22,22],"right_children":[2,4,6,8,10,12,-1,14,16,18,20,22,-1,24,26,28,30,32,-1,34,36,38,40,-1,-1,-1,-1,-1,-1,-1,-1,-1,-1,-1,-1,-1,-1,-1,-1,-1,-1],"split_conditions":[2.4678011E5,6.811256E4,5.4590825E6,2.4527334E4,2E0,5.4590825E6,3.721337E5,2.71164E4,6.691952E4,3.4675747E5,1.3569548E5,4.771792E4,3.4336444E5,7.54475E3,3.361497E4,2.313711E4,7.174585E4,1.0952484E5,-2.59156E4,6.85789E4,1.6555262E5,3.1447388E5,4.792059E5,-2.1610845E3,-1.3051621E3,-3.336222E3,-5.0463193E3,1.1924927E3,-6.479878E2,-3.209582E3,-8.1913584E3,3.1601566E2,-5.198748E3,4.5190757E3,1.2285356E3,8.493794E3,2.2495269E3,4.5895402E4,1.7427281E5,9.698804E3,2.795638E4],"split_indices":[3,3,1,3,5,0,0,1,1,0,3,1,0,3,1,1,0,0,0,1,1,4,4,0,0,0,0,0,0,0,0,0,0,0,0,0,0,0,0,0,0],"split_type":[0,0,0,0,0,0,0,0,0,0,0,0,0,0,0,0,0,0,0,0,0,0,0,0,0,0,0,0,0,0,0,0,0,0,0,0,0,0,0,0,0],"sum_hessian":[6.173E4,6.0294E4,1.436E3,4.6051E4,1.4243E4,1.435E3,1E0,2.4106E4,2.1945E4,9.4E2,1.3303E4,1.434E3,1E0,2.3346E4,7.6E2,2.0367E4,1.578E3,9.23E2,1.7E1,9.92E3,3.383E3,2.2E1,1.412E3,8.921E3,1.4425E4,5.02E2,2.58E2,3.191E3,1.7176E4,1.466E3,1.12E2,3.72E2,5.51E2,2.007E3,7.913E3,1.676E3,1.707E3,1.6E1,6E0,1.161E3,2.51E2],"tree_param":{"num_deleted":"0","num_feature":"17","num_nodes":"41","size_leaf_vector":"1"}},{"base_weights":[6.6509995E1,3.2350086E1,3.1631362E5,-1.2621309E3,2.4341705E4,-3.022398E3,3.7523264E3,2.3725875E4,2.9185978E5,-2.8533328E3,-1.7034264E4,4.350549E3,-1.9080504E4,1.4022525E5,2.1705604E4,-1.07345E3,1.7551726E2,-4.3994106E3,-1.1519408E4,6.3520636E2,2.8579243E3,-9.817695E3,-2.501685E3,2.7934574E4,1.4812036E5,-3.6341492E3,8.0824644E3],"categories":[],"categories_nodes":[],"categories_segments":[],"categories_sizes":[],"default_left":[0,0,0,0,0,0,0,0,0,0,0,0,0,0,0,0,0,0,0,0,0,0,0,0,0,0,0],"id":7,"left_children":[1,3,-1,5,7,9,11,13,-1,15,17,19,21,23,25,-1,-1,-1,-1,-1,-1,-1,-1,-1,-1,-1,-1],"loss_changes":[2.2232205E12,1.9425502E12,0E0,5.1734924E11,1.7999871E12,1.0271998E11,2.0809757E11,7.312806E11,0E0,1.0683538E11,2.5608864E10,1.7152269E11,5.6742855E10,8.366786E11,5.4359753E11,0E0,0E0,0E0,0E0,0E0,0E0,0E0,0E0,0E0,0E0,0E0,0E0],"parents":[2147483647,0,0,1,1,3,3,4,4,5,5,6,6,7,7,9,9,10,10,11,11,12,12,13,13,14,14],"right_children":[2,4,-1,6,8,10,12,14,-1,16,18,20,22,24,26,-1,-1,-1,-1,-1,-1,-1,-1,-1,-1,-1,-1],"split_conditions":[5.4590825E6,1.749245E5,3.1631362E5,5.9834727E4,5.4590825E6,6.838623E4,1.7774211E5,3.209502E4,2.9185978E5,4.1879004E4,9.31363E4,1.0573171E5,1.5293408E5,3.1447388E5,3E0,-1.07345E3,1.7551726E2,-4.3994106E3,-1.1519408E4,6.3520636E2,2.8579243E3,-9.817695E3,-2.501685E3,2.7934574E4,1.4812036E5,-3.6341492E3,8.0824644E3],"split_indices":[1,3,0,3,0,0,0,1,0,3,0,3,3,4,5,0,0,0,0,0,0,0,0,0,0,0,0],"split_type":[0,0,0,0,0,0,0,0,0,0,0,0,0,0,0,0,0,0,0,0,0,0,0,0,0,0,0],"sum_hessian":[6.173E4,6.1729E4,1E0,5.8609E4,3.12E3,4.3381E4,1.5228E4,3.119E3,1E0,4.2865E4,5.16E2,1.484E4,3.88E2,5.2E1,3.067E3,3.5402E4,7.463E3,4.66E2,5E1,1.0368E4,4.472E3,1.7E2,2.18E2,4.7E1,5E0,4.11E2,2.656E3],"tree_param":{"num_deleted":"0","num_feature":"17","num_nodes":"27","size_leaf_vector":"1"}},{"base_weights":[5.891815E1,2.988227E1,2.6886662E5,3.0902903E0,2.4808081E5,-5.3112134E2,3.3050223E4,-1.790717E3,4.971364E3,1.8896264E5,2.9280395E4,-4.7885336E2,-5.6297754E3,1.7567913E3,-6.95283E3,1.3554497E5,2.7254023E4,-8.0960317E3,1.1367402E4],"categories":[],"categories_nodes":[],"categories_segments":[],"categories_sizes":[],"default_left":[0,0,0,0,0,0,0,0,0,0,0,0,0,0,0,0,0,0,0],"id":8,"left_children":[1,3,-1,5,-1,7,9,11,13,15,17,-1,-1,-1,-1,-1,-1,-1,-1],"loss_changes":[1.6062686E12,1.3675916E12,0E0,1.0897914E12,0E0,4.210476E11,5.7165054E11,1.6321464E11,2.818977E11,5.521273E11,4.6615547E11,0E0,0E0,0E0,0E0,0E0,0E0,0E0,0E0],"parents":[2147483647,0,0,1,1,3,3,5,5,6,6,7,7,8,8,9,9,10,10],"right_children":[2,4,-1,6,-1,8,10,12,14,16,18,-1,-1,-1,-1,-1,-1,-1,-1],"split_conditions":[5.4590825E6,5.4590825E6,2.6886662E5,2.9382803E5,2.4808081E5,8.097146E4,7.12806E4,8.88096E4,2.6932238E5,4E0,3E0,-4.7885336E2,-5.6297754E3,1.7567913E3,-6.95283E3,1.3554497E5,2.7254023E4,-8.0960317E3,1.1367402E4],"split_indices":[1,0,0,3,0,3,1,0,1,5,5,0,0,0,0,0,0,0,0],"split_type":[0,0,0,0,0,0,0,0,0,0,0,0,0,0,0,0,0,0,0],"sum_hessian":[6.173E4,6.1729E4,1E0,6.1728E4,1E0,6.0747E4,9.81E2,4.9432E4,1.1315E4,2.2E1,9.59E2,4.8873E4,5.59E2,1.0971E4,3.44E2,5E0,1.7E1,1.27E2,8.32E2],"tree_param":{"num_deleted":"0","num_feature":"17","num_nodes":"19","size_leaf_vector":"1"}},{"base_weights":[5.2123405E1,2.7442936E1,2.2853664E5,4.669785E0,2.108687E5,-2.2032063E2,5.4032234E4,-1.1782337E2,-9.415959E4,5.2342778E5,3.8734254E4,-2.3765594E2,3.274819E3,-5.735988E4,-1.4639372E4,4.0592684E5,6.4077124E3,2.728809E4,-9.08759E3],"categories":[],"categories_nodes":[],"categories_segments":[],"categories_sizes":[],"default_left":[0,0,0,0,0,0,0,0,0,0,0,0,0,0,0,0,0,0,0],"id":9,"left_children":[1,3,-1,5,-1,7,9,11,13,15,17,-1,-1,-1,-1,-1,-1,-1,-1],"loss_changes":[1.160523E12,9.8807946E11,0E0,7.503701E11,0E0,5.9189245E11,1.8180108E12,4.5693616E11,2.8559698E11,3.3034763E12,9.0039196E11,0E0,0E0,0E0,0E0,0E0,0E0,0E0,0E0],"parents":[2147483647,0,0,1,1,3,3,5,5,6,6,7,7,8,8,9,9,10,10],"right_children":[2,4,-1,6,-1,8,10,12,14,16,18,-1,-1,-1,-1,-1,-1,-1,-1],"split_conditions":[5.4590825E6,5.4590825E6,2.2853664E5,4.792059E5,2.108687E5,5.490732E5,1.102022E4,1.5753E5,1.3270672E5,5E0,8E0,-2.3765594E2,3.274819E3,-5.735988E4,-1.4639372E4,4.0592684E5,6.4077124E3,2.728809E4,-9.08759E3],"split_indices":[1,0,0,4,0,0,2,3,2,5,5,0,0,0,0,0,0,0,0],"split_type":[0,0,0,0,0,0,0,0,0,0,0,0,0,0,0,0,0,0,0],"sum_hessian":[6.173E4,6.1729E4,1E0,6.1728E4,1E0,6.1473E4,2.55E2,6.1407E4,6.6E1,7E0,2.48E2,5.7871E4,3.536E3,2E1,4.6E1,2E0,5E0,1.41E2,1.07E2],"tree_param":{"num_deleted":"0","num_feature":"17","num_nodes":"19","size_leaf_vector":"1"}},{"base_weights":[4.946232E1,2.8484001E1,1.9425616E5,9.126907E0,1.7923838E5,-2.356663E2,3.0168912E4,-1.5236125E2,-6.4720273E4,2.080993E5,2.0700775E4,-5.1604626E2,7.3163434E2,-1.6035343E4,-4.741574E4,3.368121E4,1.7068788E5,8.168031E3,-3.2449643E4],"categories":[],"categories_nodes":[],"categories_segments":[],"categories_sizes":[],"default_left":[0,0,0,0,0,0,0,0,0,0,0,0,0,0,0,0,0,0,0],"id":10,"left_children":[1,3,-1,5,-1,7,9,11,13,15,17,-1,-1,-1,-1,-1,-1,-1,-1],"loss_changes":[8.384647E11,7.138749E11,0E0,4.5574678E11,0E0,3.2892728E11,8.329728E11,2.4843867E11,7.4641965E10,8.0064086E11,4.0072862E11,0E0,0E0,0E0,0E0,0E0,0E0,0E0,0E0],"parents":[2147483647,0,0,1,1,3,3,5,5,6,6,7,7,8,8,9,9,10,10],"right_children":[2,4,-1,6,-1,8,10,12,14,16,18,-1,-1,-1,-1,-1,-1,-1,-1],"split_conditions":[5.4590825E6,5.4590825E6,1.9425616E5,3.912932E5,1.7923838E5,4.1438038E5,5.363336E4,4.709983E4,4.0429347E5,9E0,1E0,-5.1604626E2,7.3163434E2,-1.6035343E4,-4.741574E4,3.368121E4,1.7068788E5,8.168031E3,-3.2449643E4],"split_indices":[1,0,0,3,0,0,2,3,1,5,9,0,0,0,0,0,0,0,0],"split_type":[0,0,0,0,0,0,0,0,0,0,0,0,0,0,0,0,0,0,0],"sum_hessian":[6.173E4,6.1729E4,1E0,6.1728E4,1E0,6.1232E4,4.96E2,6.1154E4,7.8E1,2.4E1,4.72E2,3.8101E4,2.3053E4,7.1E1,7E0,2E1,4E0,4.5E2,2.2E1],"tree_param":{"num_deleted":"0","num_feature":"17","num_nodes":"19","size_leaf_vector":"1"}},{"base_weights":[4.2567356E1,2.473579E1,1.6511775E5,8.282272E0,1.5235261E5,-3.7006665E2,1.1787908E4,-1.5086507E2,-1.8308865E4,3.8790188E4,5.0164927E3,-2.1961932E2,1.4154849E3,-4.9674507E3,-1.8827945E4,1.0474098E4,9.792722E4,4.712107E3,-1.4865308E3],"categories":[],"categories_nodes":[],"categories_segments":[],"categories_sizes":[],"default_left":[0,0,0,0,0,0,0,0,0,0,0,0,0,0,0,0,0,0,0],"id":11,"left_children":[1,3,-1,5,-1,7,9,11,13,15,17,-1,-1,-1,-1,-1,-1,-1,-1],"loss_changes":[6.057897E11,5.1577343E11,0E0,2.7511872E11,0E0,2.3517895E11,3.510481E11,1.6721927E11,5.514692E10,4.1788696E11,1.6392454E11,0E0,0E0,0E0,0E0,0E0,0E0,0E0,0E0],"parents":[2147483647,0,0,1,1,3,3,5,5,6,6,7,7,8,8,9,9,10,10],"right_children":[2,4,-1,6,-1,8,10,12,14,16,18,-1,-1,-1,-1,-1,-1,-1,-1],"split_conditions":[5.4590825E6,5.4590825E6,1.6511775E5,2.181374E5,1.5235261E5,1.9749245E5,2.1698025E5,9.918491E4,2.3625862E5,4.792059E5,7E0,-2.1961932E2,1.4154849E3,-4.9674507E3,-1.8827945E4,1.0474098E4,9.792722E4,4.712107E3,-1.4865308E3],"split_indices":[1,0,0,3,0,1,1,3,0,4,5,0,0,0,0,0,0,0,0],"split_type":[0,0,0,0,0,0,0,0,0,0,0,0,0,0,0,0,0,0,0],"sum_hessian":[6.173E4,6.1729E4,1E0,6.1728E4,1E0,5.9808E4,1.92E3,5.9087E4,7.21E2,3.84E2,1.536E3,5.2787E4,6.3E3,6.95E2,2.6E1,3.8E2,4E0,7.41E2,7.95E2],"tree_param":{"num_deleted":"0","num_feature":"17","num_nodes":"19","size_leaf_vector":"1"}},{"base_weights":[3.6382267E1,2.1225445E1,1.4035006E5,7.2399545E0,1.2949973E5,-6.8261733E3,5.602978E2,-6.3634893E3,-1.7037594E5,3.9639178E2,4.3529797E4,-1.3689792E3,-5.6444814E3,-8.282497E4,-1.2098771E4,1.4721048E2,-2.6682602E4,-2.27859E4,2.3927371E4],"categories":[],"categories_nodes":[],"categories_segments":[],"categories_sizes":[],"default_left":[0,0,0,0,0,0,0,0,0,0,0,0,0,0,0,0,0,0,0],"id":12,"left_children":[1,3,-1,5,-1,7,9,11,13,15,17,-1,-1,-1,-1,-1,-1,-1,-1],"loss_changes":[4.3768247E11,3.7264605E11,0E0,2.3329458E11,0E0,3.4867115E11,4.0219207E11,1.0324915E11,1.6757532E11,4.793862E11,9.453715E11,0E0,0E0,0E0,0E0,0E0,0E0,0E0,0E0],"parents":[2147483647,0,0,1,1,3,3,5,5,6,6,7,7,8,8,9,9,10,10],"right_children":[2,4,-1,6,-1,8,10,12,14,16,18,-1,-1,-1,-1,-1,-1,-1,-1],"split_conditions":[5.4590825E6,5.4590825E6,1.4035006E5,2E0,1.2949973E5,5.1668725E5,5.490732E5,1.2080234E5,1E0,5.62042E5,4.792059E5,-1.3689792E3,-5.6444814E3,-8.282497E4,-1.2098771E4,1.4721048E2,-2.6682602E4,-2.27859E4,2.3927371E4],"split_indices":[1,0,0,5,0,3,0,0,7,1,4,0,0,0,0,0,0,0,0],"split_type":[0,0,0,0,0,0,0,0,0,0,0,0,0,0,0,0,0,0,0],"sum_hessian":[6.173E4,6.1729E4,1E0,6.1728E4,1E0,4.621E3,5.7107E4,4.609E3,1.2E1,5.6891E4,2.16E2,4.028E3,5.81E2,6E0,6E0,5.6832E4,5.9E1,5E1,1.66E2],"tree_param":{"num_deleted":"0","num_feature":"17","num_nodes":"19","size_leaf_vector":"1"}},{"base_weights":[2.7776302E1,1.4892953E1,1.19297555E5,3.005232E0,1.10074805E5,-2.4583507E2,1.0458631E4,-1.63486E2,-4.6566043E4,4.097672E4,3.5433857E3,-9.371052E0,-3.7464197E3,-1.1628225E3,-1.5728623E4,3.7026637E4,7.468627E3,3.4900364E3,-2.833366E3],"categories":[],"categories_nodes":[],"categories_segments":[],"categories_sizes":[],"default_left":[0,0,0,0,0,0,0,0,0,0,0,0,0,0,0,0,0,0,0],"id":13,"left_children":[1,3,-1,5,-1,7,9,11,13,15,17,-1,-1,-1,-1,-1,-1,-1,-1],"loss_changes":[3.1623066E11,2.6924157E11,0E0,1.6060791E11,0E0,2.2998322E11,3.0269728E11,9.8102575E10,2.6576568E10,3.4827197E11,1.2315072E11,0E0,0E0,0E0,0E0,0E0,0E0,0E0,0E0],"parents":[2147483647,0,0,1,1,3,3,5,5,6,6,7,7,8,8,9,9,10,10],"right_children":[2,4,-1,6,-1,8,10,12,14,16,18,-1,-1,-1,-1,-1,-1,-1,-1],"split_conditions":[5.4590825E6,5.4590825E6,1.19297555E5,2.4678011E5,1.10074805E5,2.7498375E5,2.4615422E5,2.1698025E5,7.04041E3,2.3625862E5,8E0,-9.371052E0,-3.7464197E3,-1.1628225E3,-1.5728623E4,3.7026637E4,7.468627E3,3.4900364E3,-2.833366E3],"split_indices":[1,0,0,3,0,0,1,1,1,0,5,0,0,0,0,0,0,0,0],"split_type":[0,0,0,0,0,0,0,0,0,0,0,0,0,0,0,0,0,0,0],"sum_hessian":[6.173E4,6.1729E4,1E0,6.1728E4,1E0,6.0294E4,1.434E3,6.0188E4,1.06E2,2.64E2,1.17E3,5.955E4,6.38E2,1.3E1,9.3E1,4.2E1,2.22E2,7.21E2,4.49E2],"tree_param":{"num_deleted":"0","num_feature":"17","num_nodes":"19","size_leaf_vector":"1"}},{"base_weights":[2.355564E1,1.260479E1,1.0140293E5,2.5002294E0,9.3563555E4,-3.811873E2,5.4055283E3,-1.0164845E2,-1.3297125E4,3.0855344E3,3.341349E4,-1.0530256E2,2.603651E3,-3.4736113E3,-1.0752496E4,1.2186199E4,4.957563E2,6.330534E3,2.1070777E4],"categories":[],"categories_nodes":[],"categories_segments":[],"categories_sizes":[],"default_left":[0,0,0,0,0,0,0,0,0,0,0,0,0,0,0,0,0,0,0],"id":14,"left_children":[1,3,-1,5,-1,7,9,11,13,15,17,-1,-1,-1,-1,-1,-1,-1,-1],"loss_changes":[2.2847673E11,1.9452697E11,0E0,1.2797087E11,0E0,2.080974E11,2.6585304E11,1.23528176E11,4.6887748E10,2.0330663E11,1.4041553E11,0E0,0E0,0E0,0E0,0E0,0E0,0E0,0E0],"parents":[2147483647,0,0,1,1,3,3,5,5,6,6,7,7,8,8,9,9,10,10],"right_children":[2,4,-1,6,-1,8,10,12,14,16,18,-1,-1,-1,-1,-1,-1,-1,-1],"split_conditions":[5.4590825E6,5.4590825E6,1.0140293E5,1.5293408E5,9.3563555E4,1.3660138E5,1.2E1,1.19165086E5,1.5954852E5,8.78283E4,2.9382803E5,-1.0530256E2,2.603651E3,-3.4736113E3,-1.0752496E4,1.2186199E4,4.957563E2,6.330534E3,2.1070777E4],"split_indices":[1,0,0,3,0,1,5,3,0,1,3,0,0,0,0,0,0,0,0],"split_type":[0,0,0,0,0,0,0,0,0,0,0,0,0,0,0,0,0,0,0],"sum_hessian":[6.173E4,6.1729E4,1E0,6.1728E4,1E0,5.7636E4,4.092E3,5.6416E4,1.22E3,3.78E3,3.12E2,5.4859E4,1.557E3,1.135E3,8.5E1,1.38E2,3.642E3,2.35E2,7.7E1],"tree_param":{"num_deleted":"0","num_feature":"17","num_nodes":"19","size_leaf_vector":"1"}},{"base_weights":[2.0106853E1,1.0798634E1,8.619248E4,2.2097585E0,7.952903E4,-3.1021062E3,5.9630396E2,-2.8226123E3,-1.0930877E5,4.751165E2,3.0373836E4,1.5370702E3,-1.1855063E3,-1.4429513E4,-9.1598125E4,1.8565924E2,-1.0362277E4,3.0249947E4,-7.948233E3],"categories":[],"categories_nodes":[],"categories_segments":[],"categories_sizes":[],"default_left":[0,0,0,0,0,0,0,0,0,0,0,0,0,0,0,0,0,0,0],"id":15,"left_children":[1,3,-1,5,-1,7,9,11,13,15,17,-1,-1,-1,-1,-1,-1,-1,-1],"loss_changes":[1.650743E11,1.4054567E11,0E0,1.1384593E11,0E0,2.9403932E11,1.8696485E11,8.876068E10,2.9727153E11,2.5977371E11,8.441156E11,0E0,0E0,0E0,0E0,0E0,0E0,0E0,0E0],"parents":[2147483647,0,0,1,1,3,3,5,5,6,6,7,7,8,8,9,9,10,10],"right_children":[2,4,-1,6,-1,8,10,12,14,16,18,-1,-1,-1,-1,-1,-1,-1,-1],"split_conditions":[5.4590825E6,5.4590825E6,8.619248E4,3E0,7.952903E4,5.1668725E5,5.490732E5,2.5E1,1E0,4.0429347E5,7E0,1.5370702E3,-1.1855063E3,-1.4429513E4,-9.1598125E4,1.8565924E2,-1.0362277E4,3.0249947E4,-7.948233E3],"split_indices":[1,0,0,5,0,3,0,0,9,1,5,0,0,0,0,0,0,0,0],"split_type":[0,0,0,0,0,0,0,0,0,0,0,0,0,0,0,0,0,0,0],"sum_hessian":[6.173E4,6.1729E4,1E0,6.1728E4,1E0,9.915E3,5.1813E4,9.89E3,2.5E1,5.1604E4,2.09E2,1.23E3,8.66E3,2E1,5E0,5.1394E4,2.1E2,9.3E1,1.16E2],"tree_param":{"num_deleted":"0","num_feature":"17","num_nodes":"19","size_leaf_vector":"1"}},{"base_weights":[1.524428E1,-1.3865526E2,1.2893597E4,-5.3356426E1,-4.377967E4,5.2424598E4,2.9039724E3,1.7493366E1,-3.316487E4,-8.017153E4,-3.2228023E4,1.469526E5,3.638119E4,2.0697454E3,7.32636E4,-2.1720335E2,9.583106E3,-2.1494738E4,-4.868787E4,-6.130369E4,-5.341579E4,-4.9225523E4,-1.5621449E4,1.09667625E5,2.4433098E5,2.6115867E4,2.0862733E5,-1.24417305E5,3.6033213E3,-1.4256264E1,-3.944906E3,2.1045486E4,2.1595464E3,3.7121704E2,-1.0434278E4,-1.1754189E4,-2.6265719E4,-2.0858228E3,-2.236314E4,2.973005E3,-1.5238423E4,-2.6385557E3,-1.6304219E4,3.5091777E4,1.0976091E4,1.1297663E4,8.59753E4,1.2755375E4,-1.4887794E4,9.492025E4,-1.216127E4,9.4773125E3,-4.6705164E4,8.477471E2,6.759968E4],"categories":[],"categories_nodes":[],"categories_segments":[],"categories_sizes":[],"default_left":[0,0,0,0,0,0,0,0,0,0,0,0,0,0,0,0,0,0,0,0,0,0,0,0,0,0,0,0,0,0,0,0,0,0,0,0,0,0,0,0,0,0,0,0,0,0,0,0,0,0,0,0,0,0,0],"id":16,"left_children":[1,3,5,7,9,11,13,15,17,19,21,23,25,27,-1,29,31,33,35,37,-1,39,41,43,45,47,49,51,53,-1,-1,-1,-1,-1,-1,-1,-1,-1,-1,-1,-1,-1,-1,-1,-1,-1,-1,-1,-1,-1,-1,-1,-1,-1,-1],"loss_changes":[1.2235093E11,2.2708303E11,2.8772975E11,1.4283339E11,4.7442182E10,2.175867E11,1.16855734E11,1.36400404E11,2.250367E10,4.0795242E10,2.5199886E10,4.9450615E10,2.1910816E11,1.133432E11,0E0,1.3013262E11,2.0964475E11,2.2996816E10,1.6891838E10,1.7472012E10,0E0,4.679221E9,1.2210974E10,4.7957934E9,3.2870433E10,1.5243084E11,2.0079968E11,3.9063126E10,9.866204E10,0E0,0E0,0E0,0E0,0E0,0E0,0E0,0E0,0E0,0E0,0E0,0E0,0E0,0E0,0E0,0E0,0E0,0E0,0E0,0E0,0E0,0E0,0E0,0E0,0E0,0E0],"parents":[2147483647,0,0,1,1,2,2,3,3,4,4,5,5,6,6,7,7,8,8,9,9,10,10,11,11,12,12,13,13,15,15,16,16,17,17,18,18,19,19,21,21,22,22,23,23,24,24,25,25,26,26,27,27,28,28],"right_children":[2,4,6,8,10,12,14,16,18,20,22,24,26,28,-1,30,32,34,36,38,-1,40,42,44,46,48,50,52,54,-1,-1,-1,-1,-1,-1,-1,-1,-1,-1,-1,-1,-1,-1,-1,-1,-1,-1,-1,-1,-1,-1,-1,-1,-1,-1],"split_conditions":[3.3447934E5,3.4675747E5,3.4305266E5,3.4305266E5,5.491417E4,3.0718303E5,5.4590825E6,1.973366E5,4.0429347E5,5.490732E5,2.9382803E5,5.1668725E5,4.792059E5,1.5954852E5,7.32636E4,1.7961673E5,1.7095802E5,2.1333467E5,8E0,1.114593E4,-5.341579E4,4.94031E4,3.4305266E5,4.0429347E5,3E0,5.490732E5,4E0,3.122394E4,5.4590825E6,-1.4256264E1,-3.944906E3,2.1045486E4,2.1595464E3,3.7121704E2,-1.0434278E4,-1.1754189E4,-2.6265719E4,-2.0858228E3,-2.236314E4,2.973005E3,-1.5238423E4,-2.6385557E3,-1.6304219E4,3.5091777E4,1.0976091E4,1.1297663E4,8.59753E4,1.2755375E4,-1.4887794E4,9.492025E4,-1.216127E4,9.4773125E3,-4.6705164E4,8.477471E2,6.759968E4],"split_indices":[3,0,1,1,2,0,1,3,1,0,3,3,4,0,0,1,0,0,5,1,0,1,1,2,5,0,5,0,0,0,0,0,0,0,0,0,0,0,0,0,0,0,0,0,0,0,0,0,0,0,0,0,0,0,0],"split_type":[0,0,0,0,0,0,0,0,0,0,0,0,0,0,0,0,0,0,0,0,0,0,0,0,0,0,0,0,0,0,0,0,0,0,0,0,0,0,0,0,0,0,0,0,0,0,0,0,0,0,0,0,0,0,0],"sum_hessian":[6.173E4,6.1002E4,7.28E2,6.0884E4,1.18E2,1.46E2,5.82E2,6.0755E4,1.29E2,2.7E1,9.1E1,2E1,1.26E2,5.81E2,1E0,5.9301E4,1.454E3,7.5E1,5.4E1,2.4E1,3E0,4.4E1,4.7E1,1.6E1,4E0,1.2E2,6E0,6E0,5.75E2,5.8534E4,7.67E2,5.4E1,1.4E3,2.8E1,4.7E1,4.5E1,9E0,5E0,1.9E1,1E0,4.3E1,4.1E1,6E0,1.4E1,2E0,1E0,3E0,9.9E1,2.1E1,4E0,2E0,1E0,5E0,5.74E2,1E0],"tree_param":{"num_deleted":"0","num_feature":"17","num_nodes":"55","size_leaf_vector":"1"}},{"base_weights":[1.3758013E1,-1.1913254E3,1.2962089E3,-1.01164386E3,-1.2446716E4,1.0377332E4,2.4449432E2,-7.519633E2,-7.837555E3,-1.0034916E4,-2.1645256E4,2.8646066E4,8.1567935E3,-6.953942E3,7.880788E2,-2.2335889E3,1.7097595E2,-5.790628E3,-1.0564726E4,-8.67326E3,-1.6877352E4,-2.0174525E4,-1.261789E4,2.3154111E4,8.193291E4,6.8091504E3,2.4133871E4,-5.3268604E3,-5.0280387E4,4.9655798E2,1.6533611E4,-1.0916078E3,-5.136068E2,2.1800176E3,-1.0235731E2,-2.2683396E3,-1.3072308E3,-2.4427273E3,-3.8056594E3,-4.2883413E3,-2.0539568E3,-4.509448E3,-6.3614937E3,-5.3660825E3,-7.0852188E3,4.4295327E3,8.0583525E3,2.0832254E4,5.2613566E4,2.2684666E3,-5.349782E3,1.2994228E4,1.9312333E3,-2.032287E3,2.4572444E3,-1.189935E4,-4.113718E4,1.9500627E2,-1.0744471E4,1.758208E4,1.911734E3],"categories":[],"categories_nodes":[],"categories_segments":[],"categories_sizes":[],"default_left":[0,0,0,0,0,0,0,0,0,0,0,0,0,0,0,0,0,0,0,0,0,0,0,0,0,0,0,0,0,0,0,0,0,0,0,0,0,0,0,0,0,0,0,0,0,0,0,0,0,0,0,0,0,0,0,0,0,0,0,0,0],"id":17,"left_children":[1,3,5,7,9,11,13,15,17,19,21,23,25,27,29,31,33,35,37,39,41,43,-1,45,47,49,51,53,55,57,59,-1,-1,-1,-1,-1,-1,-1,-1,-1,-1,-1,-1,-1,-1,-1,-1,-1,-1,-1,-1,-1,-1,-1,-1,-1,-1,-1,-1,-1,-1],"loss_changes":[9.540436E10,6.4351887E10,2.8562217E11,5.552298E10,1.0875314E10,1.2568458E11,1.0488449E11,4.1270034E10,6.3473254E9,3.5617997E9,2.2439444E9,9.643295E10,5.945611E10,1.3240496E11,1.1438751E11,8.483156E9,6.758785E10,1.6367084E9,2.4190894E9,3.331801E9,2.00491E8,3.493888E8,0E0,9.119564E9,2.400877E10,4.750603E10,7.269677E10,3.556756E10,5.725171E10,1.3638142E11,1.9329034E11,0E0,0E0,0E0,0E0,0E0,0E0,0E0,0E0,0E0,0E0,0E0,0E0,0E0,0E0,0E0,0E0,0E0,0E0,0E0,0E0,0E0,0E0,0E0,0E0,0E0,0E0,0E0,0E0,0E0,0E0],"parents":[2147483647,0,0,1,1,2,2,3,3,4,4,5,5,6,6,7,7,8,8,9,9,10,10,11,11,12,12,13,13,14,14,15,15,16,16,17,17,18,18,19,19,20,20,21,21,23,23,24,24,25,25,26,26,27,27,28,28,29,29,30,30],"right_children":[2,4,6,8,10,12,14,16,18,20,22,24,26,28,30,32,34,36,38,40,42,44,-1,46,48,50,52,54,56,58,60,-1,-1,-1,-1,-1,-1,-1,-1,-1,-1,-1,-1,-1,-1,-1,-1,-1,-1,-1,-1,-1,-1,-1,-1,-1,-1,-1,-1,-1,-1],"split_conditions":[3.5486316E4,4.177445E4,3.40608E4,3.711964E4,5.236943E4,2.802213E4,2E0,1.0427236E4,4.339116E4,3.245571E4,7.542114E4,8.2070414E4,9.198151E4,4.1438038E5,3.912932E5,1.9187101E3,7.1741E3,3.07305E4,4E0,2.939408E4,3.988991E4,5.859944E4,-1.261789E4,3.9239754E4,5.1668725E5,1.1147967E5,1.3762945E5,1.6148488E5,1E0,4.0429347E5,4.0429347E5,-1.0916078E3,-5.136068E2,2.1800176E3,-1.0235731E2,-2.2683396E3,-1.3072308E3,-2.4427273E3,-3.8056594E3,-4.2883413E3,-2.0539568E3,-4.509448E3,-6.3614937E3,-5.3660825E3,-7.0852188E3,4.4295327E3,8.0583525E3,2.0832254E4,5.2613566E4,2.2684666E3,-5.349782E3,1.2994228E4,1.9312333E3,-2.032287E3,2.4572444E3,-1.189935E4,-4.113718E4,1.9500627E2,-1.0744471E4,1.758208E4,1.911734E3],"split_indices":[3,0,1,1,0,0,5,3,1,1,0,3,3,0,3,3,0,3,5,3,1,0,0,3,3,0,0,2,9,1,1,0,0,0,0,0,0,0,0,0,0,0,0,0,0,0,0,0,0,0,0,0,0,0,0,0,0,0,0,0,0],"split_type":[0,0,0,0,0,0,0,0,0,0,0,0,0,0,0,0,0,0,0,0,0,0,0,0,0,0,0,0,0,0,0,0,0,0,0,0,0,0,0,0,0,0,0,0,0,0,0,0,0,0,0,0,0,0,0,0,0,0,0,0,0],"sum_hessian":[6.173E4,3.1825E4,2.9905E4,3.1326E4,4.99E2,3.103E3,2.6802E4,3.0179E4,1.147E3,3.97E2,1.02E2,3.35E2,2.768E3,1.881E3,2.4921E4,1.1583E4,1.8596E4,6.57E2,4.9E2,3.33E2,6.4E1,9.7E1,5E0,3.05E2,3E1,2.554E3,2.14E2,1.814E3,6.7E1,2.4469E4,4.52E2,3.134E3,8.449E3,1.251E3,1.7345E4,2.92E2,3.65E2,2.31E2,2.59E2,8E1,2.53E2,4.8E1,1.6E1,6.2E1,3.5E1,9.5E1,2.1E2,2.8E1,2E0,2.479E3,7.5E1,1.02E2,1.12E2,1.639E3,1.75E2,6.1E1,6E0,2.4367E4,1.02E2,8.7E1,3.65E2],"tree_param":{"num_deleted":"0","num_feature":"17","num_nodes":"61","size_leaf_vector":"1"}},{"base_weights":[9.670571E0,2.976268E0,6.198735E4,-3.19831E0,5.7173027E4,-3.0705997E2,3.0756963E3,-1.3274603E2,-2.3015213E4,1.8698818E4,1.0153671E3,4.0386833E1,-2.139158E3,-4.566817E3,-9.199323E3,1.5040593E4,3.3851875E3,-2.9552292E1,4.932343E3],"categories":[],"categories_nodes":[],"categories_segments":[],"categories_sizes":[],"default_left":[0,0,0,0,0,0,0,0,0,0,0,0,0,0,0,0,0,0,0],"id":18,"left_children":[1,3,-1,5,-1,7,9,11,13,15,17,-1,-1,-1,-1,-1,-1,-1,-1],"loss_changes":[8.538214E10,7.263908E10,0E0,5.7752003E10,0E0,2.2239668E11,1.7846777E11,1.04323514E11,2.504468E10,1.500151E11,8.4195295E10,0E0,0E0,0E0,0E0,0E0,0E0,0E0,0E0],"parents":[2147483647,0,0,1,1,3,3,5,5,6,6,7,7,8,8,9,9,10,10],"right_children":[2,4,-1,6,-1,8,10,12,14,16,18,-1,-1,-1,-1,-1,-1,-1,-1],"split_conditions":[5.4590825E6,5.4590825E6,6.198735E4,1.2939954E5,5.7173027E4,1.3762945E5,1.315924E5,1.0973388E5,1.5028634E5,1.1397667E5,1.2E1,4.0386833E1,-2.139158E3,-4.566817E3,-9.199323E3,1.5040593E4,3.3851875E3,-2.9552292E1,4.932343E3],"split_indices":[1,0,0,3,0,0,0,1,0,1,5,0,0,0,0,0,0,0,0],"split_type":[0,0,0,0,0,0,0,0,0,0,0,0,0,0,0,0,0,0,0],"sum_hessian":[6.173E4,6.1729E4,1E0,6.1728E4,1E0,5.6184E4,5.544E3,5.5757E4,4.27E2,6.45E2,4.899E3,5.3706E4,2.051E3,2.13E2,2.14E2,1.22E2,5.23E2,4.57E3,3.29E2],"tree_param":{"num_deleted":"0","num_feature":"17","num_nodes":"19","size_leaf_vector":"1"}},{"base_weights":[8.820019E0,-6.675202E2,1.6077837E3,-3.8043726E2,-8.727522E3,1.0165352E4,5.226194E2,-2.4048895E2,-7.689452E3,-7.4125044E3,-1.7284195E4,2.090104E4,5.073581E3,2.9810251E3,-1.0146417E3,-5.899462E2,3.92878E3,-1.3561398E4,-2.979702E3,-6.600443E3,-1.7156197E4,-1.4951573E4,-2.7365668E4,1.7090104E4,4.273675E4,4.881497E3,9.302165E4,-1.8151315E3,5.625951E3,-2.1013154E3,7.3042617E3,-1.3143567E2,-2.462576E3,3.616602E3,4.7354697E2,-3.3058643E3,-6.406906E3,1.7367402E3,-1.3990254E3,-2.547411E3,-1.2686506E3,1.6574117E3,-5.3767573E3,-6.4594004E3,-3.8337227E3,-2.3897878E3,-8.307705E3,6.2599194E3,4.0906633E3,1.1866795E4,3.908274E4,2.2676462E3,-5.4218854E2,1.863495E5,-1.4448977E5,-2.8918756E2,-2.3034582E4,1.3815457E3,3.2269578E4,3.664476E2,-1.3014226E3,1.5202188E3,1.1463386E4],"categories":[],"categories_nodes":[],"categories_segments":[],"categories_sizes":[],"default_left":[0,0,0,0,0,0,0,0,0,0,0,0,0,0,0,0,0,0,0,0,0,0,0,0,0,0,0,0,0,0,0,0,0,0,0,0,0,0,0,0,0,0,0,0,0,0,0,0,0,0,0,0,0,0,0,0,0,0,0,0,0,0,0],"id":19,"left_children":[1,3,5,7,9,11,13,15,17,19,21,23,25,27,29,31,33,35,37,39,41,43,45,47,49,51,53,55,57,59,61,-1,-1,-1,-1,-1,-1,-1,-1,-1,-1,-1,-1,-1,-1,-1,-1,-1,-1,-1,-1,-1,-1,-1,-1,-1,-1,-1,-1,-1,-1,-1,-1],"loss_changes":[6.6759655E10,1.0037782E11,1.703995E11,4.2847797E10,1.6660128E10,1.1277443E11,6.1551268E10,5.9891536E10,2.1724393E10,1.013343E10,4.2470605E9,5.452405E10,2.32305E10,7.949743E10,9.060452E10,4.386723E10,6.0699156E10,6.69943E9,6.493731E9,5.3320827E9,1.819734E9,2.0548526E9,7.553024E6,7.112229E9,2.213408E10,2.5084955E10,1.2096727E12,1.4209406E11,4.198014E11,6.5885393E10,7.986456E10,0E0,0E0,0E0,0E0,0E0,0E0,0E0,0E0,0E0,0E0,0E0,0E0,0E0,0E0,0E0,0E0,0E0,0E0,0E0,0E0,0E0,0E0,0E0,0E0,0E0,0E0,0E0,0E0,0E0,0E0,0E0,0E0],"parents":[2147483647,0,0,1,1,2,2,3,3,4,4,5,5,6,6,7,7,8,8,9,9,10,10,11,11,12,12,13,13,14,14,15,15,16,16,17,17,18,18,19,19,20,20,21,21,22,22,23,23,24,24,25,25,26,26,27,27,28,28,29,29,30,30],"right_children":[2,4,6,8,10,12,14,16,18,20,22,24,26,28,30,32,34,36,38,40,42,44,46,48,50,52,54,56,58,60,62,-1,-1,-1,-1,-1,-1,-1,-1,-1,-1,-1,-1,-1,-1,-1,-1,-1,-1,-1,-1,-1,-1,-1,-1,-1,-1,-1,-1,-1,-1,-1,-1],"split_conditions":[5.9834727E4,5.982784E4,5.706303E4,6.358474E4,6.002266E4,6.686877E4,6E0,4.8098418E4,5.243589E4,9.242723E4,7.406099E4,8.097146E4,4.792059E5,3E0,1.2E1,5.113972E4,4.234298E4,7.732329E4,1.205457E4,5.303093E4,2.5E1,5.4818984E4,8.357E1,5.797515E4,5.1668725E5,1.0747283E5,4E0,5.1668725E5,5.62042E5,9.242723E4,2.9382803E5,-1.3143567E2,-2.462576E3,3.616602E3,4.7354697E2,-3.3058643E3,-6.406906E3,1.7367402E3,-1.3990254E3,-2.547411E3,-1.2686506E3,1.6574117E3,-5.3767573E3,-6.4594004E3,-3.8337227E3,-2.3897878E3,-8.307705E3,6.2599194E3,4.0906633E3,1.1866795E4,3.908274E4,2.2676462E3,-5.4218854E2,1.863495E5,-1.4448977E5,-2.8918756E2,-2.3034582E4,1.3815457E3,3.2269578E4,3.664476E2,-1.3014226E3,1.5202188E3,1.1463386E4],"split_indices":[3,1,1,0,0,0,5,3,3,1,1,3,4,5,5,0,1,0,1,3,0,3,2,0,3,0,5,3,1,1,3,0,0,0,0,0,0,0,0,0,0,0,0,0,0,0,0,0,0,0,0,0,0,0,0,0,0,0,0,0,0,0,0],"split_type":[0,0,0,0,0,0,0,0,0,0,0,0,0,0,0,0,0,0,0,0,0,0,0,0,0,0,0,0,0,0,0,0,0,0,0,0,0,0,0,0,0,0,0,0,0,0,0,0,0,0,0,0,0,0,0,0,0,0,0,0,0,0,0],"sum_hessian":[6.173E4,4.3381E4,1.8349E4,4.189E4,1.491E3,2.064E3,1.6285E4,4.1104E4,7.86E2,1.294E3,1.97E2,6.63E2,1.401E3,6.265E3,1.002E4,3.7926E4,3.178E3,3.49E2,4.37E2,1.196E3,9.8E1,1.62E2,3.5E1,5.66E2,9.7E1,1.399E3,2E0,2.227E3,4.038E3,8.863E3,1.157E3,3.7186E4,7.4E2,7.12E2,2.466E3,2.65E2,8.4E1,7E1,3.67E2,6.64E2,5.32E2,3E0,9.5E1,3.8E1,1.24E2,1E0,3.4E1,2.68E2,2.98E2,9.5E1,2E0,9.99E2,4E2,1E0,1E0,2.203E3,2.4E1,3.999E3,3.9E1,3.566E3,5.297E3,1.08E3,7.7E1],"tree_param":{"num_deleted":"0","num_feature":"17","num_nodes":"63","size_leaf_vector":"1"}},{"base_weights":[7.646171E0,1.9349229E0,5.2884453E4,-3.9577377E2,2.2809548E3,-2.4491096E2,-1.7370082E4,1.33712E4,4.576305E2,-5.095103E1,-9.228681E3,-1.4740604E4,-3.701297E4,3.3426492E4,9.03153E3,4.1639343E2,4.87923E4,-1.07742714E2,1.1278857E3,-2.2136902E3,-4.73961E3,-1.434533E3,-5.3310337E3,-1.0051482E4,-1.4304077E4,9.704516E3,3.126619E4,4.0437937E3,3.2909445E2,7.076528E2,-8.1201276E2],"categories":[],"categories_nodes":[],"categories_segments":[],"categories_sizes":[],"default_left":[0,0,0,0,0,0,0,0,0,0,0,0,0,0,0,0,0,0,0,0,0,0,0,0,0,0,0,0,0,0,0],"id":20,"left_children":[1,3,-1,5,7,9,11,13,15,17,19,21,23,25,27,29,-1,-1,-1,-1,-1,-1,-1,-1,-1,-1,-1,-1,-1,-1,-1],"loss_changes":[6.2146957E10,5.5952114E10,0E0,1.345884E11,1.8546193E11,9.07781E10,2.3368614E10,1.124063E11,5.2620075E10,5.989144E10,1.3263495E10,1.2284879E10,4.232151E8,1.4183105E10,3.7605573E10,4.779195E10,0E0,0E0,0E0,0E0,0E0,0E0,0E0,0E0,0E0,0E0,0E0,0E0,0E0,0E0,0E0],"parents":[2147483647,0,0,1,1,3,3,4,4,5,5,6,6,7,7,8,8,9,9,10,10,11,11,12,12,13,13,14,14,15,15],"right_children":[2,4,-1,6,8,10,12,14,16,18,20,22,24,26,28,30,-1,-1,-1,-1,-1,-1,-1,-1,-1,-1,-1,-1,-1,-1,-1],"split_conditions":[5.4590825E6,9.773732E4,5.2884453E4,1.0747283E5,9.547491E4,9.704783E4,9.704783E4,9.743702E4,5.4590825E6,7.298251E4,9.018871E4,7.7235E2,1.2153269E5,5.1668725E5,1.3762945E5,8E0,4.87923E4,-1.07742714E2,1.1278857E3,-2.2136902E3,-4.73961E3,-1.434533E3,-5.3310337E3,-1.0051482E4,-1.4304077E4,9.704516E3,3.126619E4,4.0437937E3,3.2909445E2,7.076528E2,-8.1201276E2],"split_indices":[1,3,0,0,1,1,1,0,0,3,0,2,1,3,0,5,0,0,0,0,0,0,0,0,0,0,0,0,0,0,0],"split_type":[0,0,0,0,0,0,0,0,0,0,0,0,0,0,0,0,0,0,0,0,0,0,0,0,0,0,0,0,0,0,0],"sum_hessian":[6.173E4,6.1729E4,1E0,5.2558E4,9.171E3,5.2096E4,4.62E2,1.294E3,7.877E3,5.0996E4,1.1E3,4.09E2,5.3E1,2.29E2,1.065E3,7.876E3,1E0,4.7181E4,3.815E3,8.6E2,2.4E2,9.6E1,3.13E2,4.3E1,1E1,2.27E2,2E0,6.82E2,3.83E2,4.856E3,3.02E3],"tree_param":{"num_deleted":"0","num_feature":"17","num_nodes":"31","size_leaf_vector":"1"}},{"base_weights":[7.131735E0,2.2771847E0,4.4951777E4,-2.2018642E0,4.1473426E4,9.73963E1,-6.247488E3,-3.4449215E1,2.2405607E4,1.8490736E3,-1.9709764E4,5.128313E0,-1.0489842E4,5.9408096E3,6.0506984E4,-2.5914683E3,1.3867005E4,-5.1041074E4,-5.3965156E3],"categories":[],"categories_nodes":[],"categories_segments":[],"categories_sizes":[],"default_left":[0,0,0,0,0,0,0,0,0,0,0,0,0,0,0,0,0,0,0],"id":21,"left_children":[1,3,-1,5,-1,7,9,11,13,15,17,-1,-1,-1,-1,-1,-1,-1,-1],"loss_changes":[4.490078E10,3.82232E10,0E0,3.839722E10,0E0,1.787133E11,1.0565565E11,1.0876009E11,1.6260397E11,2.8241127E11,9.119452E10,0E0,0E0,0E0,0E0,0E0,0E0,0E0,0E0],"parents":[2147483647,0,0,1,1,3,3,5,5,6,6,7,7,8,8,9,9,10,10],"right_children":[2,4,-1,6,-1,8,10,12,14,16,18,-1,-1,-1,-1,-1,-1,-1,-1],"split_conditions":[5.4590825E6,5.4590825E6,4.4951777E4,2.9739303E5,4.1473426E4,2.7030575E5,8E0,3.0718303E5,4.792059E5,5.264343E5,3.21E0,5.128313E0,-1.0489842E4,5.9408096E3,6.0506984E4,-2.5914683E3,1.3867005E4,-5.1041074E4,-5.3965156E3],"split_indices":[1,0,0,1,0,3,5,0,4,2,2,0,0,0,0,0,0,0,0],"split_type":[0,0,0,0,0,0,0,0,0,0,0,0,0,0,0,0,0,0,0],"sum_hessian":[6.173E4,6.1729E4,1E0,6.1728E4,1E0,6.076E4,9.68E2,6.0404E4,3.56E2,6.05E2,3.63E2,6.0316E4,8.8E1,3.52E2,4E0,4.9E2,1.15E2,3E0,3.6E2],"tree_param":{"num_deleted":"0","num_feature":"17","num_nodes":"19","size_leaf_vector":"1"}},{"base_weights":[6.567811E0,-2.665267E2,2.0578445E3,-1.1743455E2,-1.4752163E4,8.344219E3,-1.829722E2,3.0715206E-1,-7.399718E3,-1.2126779E4,-3.306825E4,2.2539889E4,5.0013613E3,-3.109503E3,2.2168652E3,-1.8494545E2,5.481435E3,-2.3880051E3,-9.647568E3,-1.0167889E4,-2.9830635E4,-1.1245293E4,-2.4323059E4,3.3496164E4,1.7890623E4,4.6184253E3,6.3281875E4,-1.131057E3,-1.6608082E4,1.3212364E4,-6.330249E2,2.5709612E1,-1.3535094E3,6.3687495E3,9.9321735E2,7.648918E3,-8.083999E2,-2.5138267E3,-7.8164214E3,-4.7625493E3,-2.130178E3,-7.145131E3,-1.5972881E4,-5.468768E3,-9.675079E3,9.33891E3,2.2663848E4,4.1547285E3,7.771754E3,1.5660618E3,-1.8340082E4,-1.7854123E4,7.8706125E4,7.7831055E2,-2.1100793E3,-3.7426309E3,-9.303131E3,1.3586102E4,2.8002727E3,-4.666696E3,9.992563E1],"categories":[],"categories_nodes":[],"categories_segments":[],"categories_sizes":[],"default_left":[0,0,0,0,0,0,0,0,0,0,0,0,0,0,0,0,0,0,0,0,0,0,0,0,0,0,0,0,0,0,0,0,0,0,0,0,0,0,0,0,0,0,0,0,0,0,0,0,0,0,0,0,0,0,0,0,0,0,0,0,0],"id":22,"left_children":[1,3,5,7,9,11,13,15,17,19,21,23,25,27,29,31,33,35,37,39,41,-1,43,45,47,49,51,53,55,57,59,-1,-1,-1,-1,-1,-1,-1,-1,-1,-1,-1,-1,-1,-1,-1,-1,-1,-1,-1,-1,-1,-1,-1,-1,-1,-1,-1,-1,-1,-1],"loss_changes":[3.4581787E10,1.1765627E11,1.0217173E11,4.6236828E10,2.6287129E10,9.033481E10,3.7566956E10,5.38859E10,9.642832E9,1.658581E10,1.7530061E9,1.789146E10,3.416626E10,6.4343183E10,9.210476E10,6.0113027E10,5.9238535E10,2.3518367E9,1.2099236E10,7.5898757E9,5.4898565E9,0E0,6.680863E8,8.2958254E9,7.966417E9,6.1056455E10,2.6006515E11,4.626211E10,1.794524E10,7.483284E10,3.3668653E10,0E0,0E0,0E0,0E0,0E0,0E0,0E0,0E0,0E0,0E0,0E0,0E0,0E0,0E0,0E0,0E0,0E0,0E0,0E0,0E0,0E0,0E0,0E0,0E0,0E0,0E0,0E0,0E0,0E0,0E0],"parents":[2147483647,0,0,1,1,2,2,3,3,4,4,5,5,6,6,7,7,8,8,9,9,10,10,11,11,12,12,13,13,14,14,15,15,16,16,17,17,18,18,19,19,20,20,22,22,23,23,24,24,25,25,26,26,27,27,28,28,29,29,30,30],"right_children":[2,4,6,8,10,12,14,16,18,20,22,24,26,28,30,32,34,36,38,40,42,-1,44,46,48,50,52,54,56,58,60,-1,-1,-1,-1,-1,-1,-1,-1,-1,-1,-1,-1,-1,-1,-1,-1,-1,-1,-1,-1,-1,-1,-1,-1,-1,-1,-1,-1,-1,-1],"split_conditions":[1.1196817E5,1.1867642E5,1.2463116E5,1.1176839E5,1.1176839E5,1.1384561E5,1.749245E5,9.349815E4,3E0,1.5496369E5,1.0785832E5,9.899042E4,3.912932E5,1.7095802E5,1.876258E5,7.709719E4,8.646975E4,1.4524E2,1.5977964E5,9.349815E4,8E0,-1.1245293E4,1.2740161E5,2.1281911E5,1.2150124E5,4.1438038E5,2.022E3,1.547024E5,1.7221116E5,1.6514627E5,2.021E3,2.5709612E1,-1.3535094E3,6.3687495E3,9.9321735E2,7.648918E3,-8.083999E2,-2.5138267E3,-7.8164214E3,-4.7625493E3,-2.130178E3,-7.145131E3,-1.5972881E4,-5.468768E3,-9.675079E3,9.33891E3,2.2663848E4,4.1547285E3,7.771754E3,1.5660618E3,-1.8340082E4,-1.7854123E4,7.8706125E4,7.7831055E2,-2.1100793E3,-3.7426309E3,-9.303131E3,1.3586102E4,2.8002727E3,-4.666696E3,9.992563E1],"split_indices":[3,0,1,1,1,0,3,3,5,0,3,0,3,0,1,1,0,0,1,3,5,0,1,4,3,0,6,1,1,0,6,0,0,0,0,0,0,0,0,0,0,0,0,0,0,0,0,0,0,0,0,0,0,0,0,0,0,0,0,0,0],"split_type":[0,0,0,0,0,0,0,0,0,0,0,0,0,0,0,0,0,0,0,0,0,0,0,0,0,0,0,0,0,0,0,0,0,0,0,0,0,0,0,0,0,0,0,0,0,0,0,0,0,0,0,0,0,0,0,0,0,0,0,0,0],"sum_hessian":[6.173E4,5.4478E4,7.252E3,5.3924E4,5.54E2,1.905E3,5.347E3,5.3067E4,8.57E2,4.86E2,6.8E1,3.62E2,1.543E3,2.409E3,2.938E3,5.1333E4,1.734E3,2.66E2,5.91E2,4.39E2,4.7E1,4.3E1,2.5E1,1.06E2,2.56E2,1.534E3,9E0,2.102E3,3.07E2,6.04E2,2.334E3,4.8312E4,3.021E3,2.09E2,1.525E3,2E0,2.64E2,5.5E2,4.1E1,1.52E2,2.87E2,3.9E1,8E0,1.6E1,9E0,1.02E2,4E0,1.72E2,8.4E1,1.521E3,1.3E1,6E0,3E0,1.289E3,8.13E2,2.4E2,6.7E1,6.4E1,5.4E2,1.41E2,2.193E3],"tree_param":{"num_deleted":"0","num_feature":"17","num_nodes":"61","size_leaf_vector":"1"}},{"base_weights":[5.108688E0,-1.1368303E3,5.151317E2,-7.792152E2,-4.8945586E3,5.326334E3,6.915771E1,-1.6894346E3,7.897124E1,-3.8545635E3,-7.375828E3,3.1278516E3,1.1337737E4,6.2639454E1,3.8193977E4,-2.887824E3,-1.3349889E3,5.8003433E3,-6.952944E2,-5.868008E3,-2.9939707E3,-7.045339E3,-4.316937E3,6.368055E3,-2.819325E3,1.9069928E4,7.424094E3,-1.831996E2,3.2009863E3,-1.0888517E3,-7.327166E2,1.7663557E2,-5.6209216E2,1.95092E3,-2.389161E1,-1.1088297E2,-1.4378705E3,-1.5986407E3,-2.633663E3,-7.825694E2,-3.0240693E3,-3.421778E3,-2.0032336E3,2.4236985E3,1.171958E3,-3.5271997E2,-2.5178274E3,5.577219E3,1.929205E4,2.4193928E3,-1.5632803E4,1.8297752E2,-5.449801E2,7.339596E2,8.956808E3],"categories":[],"categories_nodes":[],"categories_segments":[],"categories_sizes":[],"default_left":[0,0,0,0,0,0,0,0,0,0,0,0,0,0,0,0,0,0,0,0,0,0,0,0,0,0,0,0,0,0,0,0,0,0,0,0,0,0,0,0,0,0,0,0,0,0,0,0,0,0,0,0,0,0,0],"id":23,"left_children":[1,3,5,7,9,11,13,15,17,19,21,23,25,27,-1,29,31,33,35,37,39,41,-1,43,45,47,49,51,53,-1,-1,-1,-1,-1,-1,-1,-1,-1,-1,-1,-1,-1,-1,-1,-1,-1,-1,-1,-1,-1,-1,-1,-1,-1,-1],"loss_changes":[3.595366E10,2.560806E10,9.1561845E10,1.3595056E10,4.2448896E9,4.7806333E10,3.238377E10,3.583701E9,3.9691166E10,2.008021E9,1.02982246E9,5.112215E10,2.9181362E10,3.013108E10,0E0,6.2776115E8,6.757413E9,4.413489E9,1.0530315E10,5.0099507E8,2.2159293E9,6.7461734E8,0E0,7.1996375E9,8.564311E9,5.849645E9,2.5016668E10,4.691988E10,5.697905E10,0E0,0E0,0E0,0E0,0E0,0E0,0E0,0E0,0E0,0E0,0E0,0E0,0E0,0E0,0E0,0E0,0E0,0E0,0E0,0E0,0E0,0E0,0E0,0E0,0E0,0E0],"parents":[2147483647,0,0,1,1,2,2,3,3,4,4,5,5,6,6,7,7,8,8,9,9,10,10,11,11,12,12,13,13,15,15,16,16,17,17,18,18,19,19,20,20,21,21,23,23,24,24,25,25,26,26,27,27,28,28],"right_children":[2,4,6,8,10,12,14,16,18,20,22,24,26,28,-1,30,32,34,36,38,40,42,-1,44,46,48,50,52,54,-1,-1,-1,-1,-1,-1,-1,-1,-1,-1,-1,-1,-1,-1,-1,-1,-1,-1,-1,-1,-1,-1,-1,-1,-1,-1],"split_conditions":[1.8641154E4,1.710001E4,1.648618E4,7.0760166E3,2.215514E4,4.0525137E4,5.4590825E6,8.8318E2,4.6643E3,1.4627747E4,2.18937E4,2.903675E4,5.298859E4,1.2E1,3.8193977E4,1.6230667E2,2.8269E2,8.79654E3,2.041488E4,1.427038E4,2.217304E4,1.44597E3,-4.316937E3,2.065975E4,4.629094E4,5.1668725E5,5.490732E5,8E0,2.9382803E5,-1.0888517E3,-7.327166E2,1.7663557E2,-5.6209216E2,1.95092E3,-2.389161E1,-1.1088297E2,-1.4378705E3,-1.5986407E3,-2.633663E3,-7.825694E2,-3.0240693E3,-3.421778E3,-2.0032336E3,2.4236985E3,1.171958E3,-3.5271997E2,-2.5178274E3,5.577219E3,1.929205E4,2.4193928E3,-1.5632803E4,1.8297752E2,-5.449801E2,7.339596E2,8.956808E3],"split_indices":[3,1,1,3,1,3,1,3,0,3,0,0,0,5,0,3,0,1,0,0,0,0,0,0,0,3,0,5,3,0,0,0,0,0,0,0,0,0,0,0,0,0,0,0,0,0,0,0,0,0,0,0,0,0,0],"split_type":[0,0,0,0,0,0,0,0,0,0,0,0,0,0,0,0,0,0,0,0,0,0,0,0,0,0,0,0,0,0,0,0,0,0,0,0,0,0,0,0,0,0,0,0,0,0,0,0,0,0,0,0,0,0,0],"sum_hessian":[6.173E4,1.9058E4,4.2672E4,1.7403E4,1.655E3,3.619E3,3.9053E4,8.445E3,8.958E3,1.168E3,4.87E2,2.651E3,9.68E2,3.9052E4,1E0,1.926E3,6.519E3,1.067E3,7.891E3,3.48E2,8.2E2,4.67E2,2E1,1.716E3,9.35E2,3.24E2,6.44E2,3.6216E4,2.836E3,7.2E2,1.206E3,1.426E3,5.093E3,9.53E2,1.14E2,7.311E3,5.8E2,2.96E2,5.2E1,7.79E2,4.1E1,3.4E1,4.33E2,1.011E3,7.05E2,7.23E2,2.12E2,3.22E2,2E0,6.38E2,6E0,2.4379E4,1.1837E4,2.759E3,7.7E1],"tree_param":{"num_deleted":"0","num_feature":"17","num_nodes":"55","size_leaf_vector":"1"}},{"base_weights":[4.228815E0,4.2630786E-1,3.5209953E4,6.0832108E1,-7.3969897E3,-2.191965E1,1.7819611E4,1.221511E3,-3.4699086E4,5.8602585E1,-1.7222129E4,1.1318847E4,6.3744508E4,-1.709364E4,3.2871832E4,-1.2816631E4,-5.866011E4,-1.4385343E0,4.7079814E3,-4.680973E3,-2.3716414E4,5.7332017E3,-1.4615768E4,9.727652E3,1.1610161E5,3.6820776E3,-1.2138242E4,-1.7427076E4,2.2550371E4,6.640755E2,-1.248339E4,-3.681945E4,-1.2724978E4],"categories":[],"categories_nodes":[],"categories_segments":[],"categories_sizes":[],"default_left":[0,0,0,0,0,0,0,0,0,0,0,0,0,0,0,0,0,0,0,0,0,0,0,0,0,0,0,0,0,0,0,0,0],"id":24,"left_children":[1,3,-1,5,7,9,11,13,15,17,19,21,23,25,27,29,31,-1,-1,-1,-1,-1,-1,-1,-1,-1,-1,-1,-1,-1,-1,-1,-1],"loss_changes":[2.7548697E10,2.7584305E10,0E0,8.998364E10,1.1769397E11,8.441394E10,8.406581E10,2.2142014E11,6.2167286E10,6.0131344E10,2.719486E10,1.1788259E11,3.417984E11,1.6656402E11,5.429938E11,2.7790674E10,5.4116598E10,0E0,0E0,0E0,0E0,0E0,0E0,0E0,0E0,0E0,0E0,0E0,0E0,0E0,0E0,0E0,0E0],"parents":[2147483647,0,0,1,1,3,3,4,4,5,5,6,6,7,7,8,8,9,9,10,10,11,11,12,12,13,13,14,14,15,15,16,16],"right_children":[2,4,-1,6,8,10,12,14,16,18,20,22,24,26,28,30,32,-1,-1,-1,-1,-1,-1,-1,-1,-1,-1,-1,-1,-1,-1,-1,-1],"split_conditions":[5.4590825E6,4.0429347E5,3.5209953E4,3.3447934E5,9E0,3.0718303E5,1.2E1,5.264343E5,5.1668725E5,2.7030575E5,5.490732E5,5.490732E5,5.490732E5,5E0,5E0,5.264343E5,5.264343E5,-1.4385343E0,4.7079814E3,-4.680973E3,-2.3716414E4,5.7332017E3,-1.4615768E4,9.727652E3,1.1610161E5,3.6820776E3,-1.2138242E4,-1.7427076E4,2.2550371E4,6.640755E2,-1.248339E4,-3.681945E4,-1.2724978E4],"split_indices":[0,1,0,3,5,0,5,2,3,3,0,0,0,5,5,2,2,0,0,0,0,0,0,0,0,0,0,0,0,0,0,0,0],"split_type":[0,0,0,0,0,0,0,0,0,0,0,0,0,0,0,0,0,0,0,0,0,0,0,0,0,0,0,0,0,0,0,0,0],"sum_hessian":[6.173E4,6.1729E4,1E0,6.123E4,4.99E2,6.0947E4,2.83E2,3.8E2,1.19E2,6.0664E4,2.83E2,2.49E2,3.4E1,2.41E2,1.39E2,6.3E1,5.6E1,6.042E4,2.44E2,2.77E2,6E0,2.21E2,2.8E1,3.2E1,2E0,1.07E2,1.34E2,4.4E1,9.5E1,4.2E1,2.1E1,1E1,4.6E1],"tree_param":{"num_deleted":"0","num_feature":"17","num_nodes":"33","size_leaf_vector":"1"}},{"base_weights":[3.9929667E0,-7.4415454E2,4.995076E2,-5.821004E2,-6.6204355E3,3.5453794E3,-1.01610535E2,-3.8292236E2,-4.061427E3,-5.321557E3,-1.1495021E4,8.9711E3,2.5900383E3,-1.306342E3,5.442552E2,-7.95803E2,9.9455286E2,-3.7306492E3,-1.05848E4,-4.164968E3,-9.255911E3,-1.0950138E4,-1.2921611E4,7.7089404E3,1.3177648E4,1.270811E3,5.442516E3,-6.111459E2,-7.696727E3,3.4664468E3,-4.2798035E2,-1.3324594E2,-7.9286346E2,1.6718118E3,2.6820656E1,-1.6559652E3,-7.2389307E2,-3.2741423E3,1.4227056E3,-2.7211982E3,-1.05388E3,-2.494693E3,-4.2052925E3,-3.0023386E3,-3.9947817E3,1.6057992E3,2.783484E3,3.7852446E3,1.4287E4,7.3967206E2,-1.2558037E3,3.3008123E3,8.5732495E2,1.903716E2,-9.478527E2,-1.7482856E3,-4.0231885E3,5.7397754E2,3.0775098E3,-1.2572734E3,1.1406187E2],"categories":[],"categories_nodes":[],"categories_segments":[],"categories_sizes":[],"default_left":[0,0,0,0,0,0,0,0,0,0,0,0,0,0,0,0,0,0,0,0,0,0,0,0,0,0,0,0,0,0,0,0,0,0,0,0,0,0,0,0,0,0,0,0,0,0,0,0,0,0,0,0,0,0,0,0,0,0,0,0,0],"id":25,"left_children":[1,3,5,7,9,11,13,15,17,19,21,23,25,27,29,31,33,35,37,39,41,43,-1,45,47,49,51,53,55,57,59,-1,-1,-1,-1,-1,-1,-1,-1,-1,-1,-1,-1,-1,-1,-1,-1,-1,-1,-1,-1,-1,-1,-1,-1,-1,-1,-1,-1,-1,-1],"loss_changes":[2.2885165E10,2.3418315E10,6.799373E10,1.6586916E10,4.1176125E9,3.170444E10,2.4134099E10,1.2878039E10,2.7570033E9,2.3413248E9,1.9027558E9,4.761764E9,1.958361E10,4.808613E10,5.7368138E10,1.1314178E10,2.163904E10,2.898348E9,3.644078E8,1.2668001E9,4.1175654E8,1.7216307E8,0E0,2.5646776E9,3.451134E9,2.3226644E10,2.3624532E10,3.0998227E10,1.1263902E10,5.315853E10,4.60811E10,0E0,0E0,0E0,0E0,0E0,0E0,0E0,0E0,0E0,0E0,0E0,0E0,0E0,0E0,0E0,0E0,0E0,0E0,0E0,0E0,0E0,0E0,0E0,0E0,0E0,0E0,0E0,0E0,0E0,0E0],"parents":[2147483647,0,0,1,1,2,2,3,3,4,4,5,5,6,6,7,7,8,8,9,9,10,10,11,11,12,12,13,13,14,14,15,15,16,16,17,17,18,18,19,19,20,20,21,21,23,23,24,24,25,25,26,26,27,27,28,28,29,29,30,30],"right_children":[2,4,6,8,10,12,14,16,18,20,22,24,26,28,30,32,34,36,38,40,42,44,-1,46,48,50,52,54,56,58,60,-1,-1,-1,-1,-1,-1,-1,-1,-1,-1,-1,-1,-1,-1,-1,-1,-1,-1,-1,-1,-1,-1,-1,-1,-1,-1,-1,-1,-1,-1],"split_conditions":[2.512333E4,2.802213E4,2.933816E4,2.509523E4,3.465925E4,2.376456E4,5.303093E4,1.698183E4,4.497594E4,2.245549E4,7.439876E4,3.7968055E4,3.717731E4,5.298859E4,6.766543E4,1.294518E4,1.570484E4,2.1135242E4,7.30146E4,1.7820088E4,3.163962E4,1.870093E4,-1.2921611E4,4.41919E3,5.1668725E5,3.899446E4,4.787016E4,4.497594E4,5.070256E4,6.966554E4,7.667563E4,-1.3324594E2,-7.9286346E2,1.6718118E3,2.6820656E1,-1.6559652E3,-7.2389307E2,-3.2741423E3,1.4227056E3,-2.7211982E3,-1.05388E3,-2.494693E3,-4.2052925E3,-3.0023386E3,-3.9947817E3,1.6057992E3,2.783484E3,3.7852446E3,1.4287E4,7.3967206E2,-1.2558037E3,3.3008123E3,8.5732495E2,1.903716E2,-9.478527E2,-1.7482856E3,-4.0231885E3,5.7397754E2,3.0775098E3,-1.2572734E3,1.1406187E2],"split_indices":[3,0,1,1,0,0,3,3,1,1,0,3,3,0,0,1,0,3,1,3,1,1,0,1,3,0,0,1,1,3,3,0,0,0,0,0,0,0,0,0,0,0,0,0,0,0,0,0,0,0,0,0,0,0,0,0,0,0,0,0,0],"split_type":[0,0,0,0,0,0,0,0,0,0,0,0,0,0,0,0,0,0,0,0,0,0,0,0,0,0,0,0,0,0,0,0,0,0,0,0,0,0,0,0,0,0,0,0,0,0,0,0,0,0,0,0,0,0,0,0,0,0,0,0,0],"sum_hessian":[6.173E4,2.4595E4,3.7135E4,2.3936E4,6.59E2,6.12E3,3.1015E4,2.2641E4,1.295E3,5.22E2,1.37E2,9.15E2,5.205E3,1.0824E4,2.0191E4,1.742E4,5.221E3,1.234E3,6.1E1,4.05E2,1.17E2,1.36E2,1E0,7.06E2,2.09E2,3.56E3,1.645E3,9.763E3,1.061E3,5.04E3,1.5151E4,1.4635E4,2.785E3,8.61E2,4.36E3,5.22E2,7.12E2,6E1,1E0,4.6E1,3.59E2,1E2,1.7E1,1.01E2,3.5E1,2.84E2,4.22E2,2.07E2,2E0,2.921E3,6.39E2,5.21E2,1.124E3,6.558E3,3.205E3,8.01E2,2.6E2,4.103E3,9.37E2,2.678E3,1.2473E4],"tree_param":{"num_deleted":"0","num_feature":"17","num_nodes":"61","size_leaf_vector":"1"}},{"base_weights":[2.6043842E0,1.0940584E2,-3.3084636E3,-1.8600164E1,1.2308553E4,-1.8975348E4,6.485293E2,5.4512825E1,-1.3259643E4,1.5685752E4,-2.9270137E4,-1.6945629E4,-5.0537566E4,7.4677544E3,-2.96468E3,-9.486429E1,7.7624033E3,-8.922331E3,-3.5858945E4,1.1005162E4,3.3528977E4,-1.7301945E4,-4.6080816E4,-2.8143715E4,-9.995288E3,-1.9563674E4,-5.602872E4,4.652515E3,3.190134E4,-2.982903E4,-7.1077655E2,6.5082655E0,-3.511032E3,6.9463335E3,7.646674E2,-3.5665234E3,3.3050967E3,-9.660551E3,-1.6430607E4,8.579564E3,1.4600566E3,8.35412E3,2.1320127E4,-9.222565E3,4.1081323E3,-6.563889E3,-1.1908217E4,-3.0494373E2,-4.4807646E3,-4.850133E2,-7.093871E3,-1.3858263E4,-2.4407877E4,2.161891E3,-9.397719E3,4.5954614E3,5.8400723E4,-1.016681E4,2.9805225E3,-1.2828866E3,3.5811643E3],"categories":[],"categories_nodes":[],"categories_segments":[],"categories_sizes":[],"default_left":[0,0,0,0,0,0,0,0,0,0,0,0,0,0,0,0,0,0,0,0,0,0,0,0,0,0,0,0,0,0,0,0,0,0,0,0,0,0,0,0,0,0,0,0,0,0,0,0,0,0,0,0,0,0,0,0,0,0,0,0,0],"id":26,"left_children":[1,3,5,7,9,11,13,15,17,19,21,23,25,27,29,31,33,35,37,39,41,43,-1,45,47,49,51,53,55,57,59,-1,-1,-1,-1,-1,-1,-1,-1,-1,-1,-1,-1,-1,-1,-1,-1,-1,-1,-1,-1,-1,-1,-1,-1,-1,-1,-1,-1,-1,-1],"loss_changes":[2.1830105E10,9.338644E10,1.1959825E11,5.729532E10,8.765965E10,2.4063885E10,3.799128E10,6.776996E10,3.1536628E10,4.7653175E10,6.728007E10,2.8282487E10,2.8157665E9,3.6583514E10,6.1012845E10,7.812833E10,8.9736905E10,1.633578E10,1.832407E9,4.9213886E10,2.3402275E10,1.8750517E10,0E0,9.260835E9,1.0099044E10,3.281189E8,9.748767E8,4.4328542E10,1.45474E11,1.293022E10,4.2035945E10,0E0,0E0,0E0,0E0,0E0,0E0,0E0,0E0,0E0,0E0,0E0,0E0,0E0,0E0,0E0,0E0,0E0,0E0,0E0,0E0,0E0,0E0,0E0,0E0,0E0,0E0,0E0,0E0,0E0,0E0],"parents":[2147483647,0,0,1,1,2,2,3,3,4,4,5,5,6,6,7,7,8,8,9,9,10,10,11,11,12,12,13,13,14,14,15,15,16,16,17,17,18,18,19,19,20,20,21,21,23,23,24,24,25,25,26,26,27,27,28,28,29,29,30,30],"right_children":[2,4,6,8,10,12,14,16,18,20,22,24,26,28,30,32,34,36,38,40,42,44,-1,46,48,50,52,54,56,58,60,-1,-1,-1,-1,-1,-1,-1,-1,-1,-1,-1,-1,-1,-1,-1,-1,-1,-1,-1,-1,-1,-1,-1,-1,-1,-1,-1,-1,-1,-1],"split_conditions":[2.232512E5,1.973366E5,2.280599E5,2.0622522E5,4.0429347E5,2.4615422E5,2.6932238E5,1.5753E5,1.8587527E5,2.280599E5,3.912932E5,1.973366E5,4E0,3.3447934E5,2.2609519E5,1.5496369E5,1.5954852E5,1.8863822E5,2.4615422E5,1.876258E5,2.7602153E5,2.9382803E5,-4.6080816E4,2.5359028E5,1.7961673E5,1E0,2.5359028E5,4.1438038E5,1E0,1E0,5.62042E5,6.5082655E0,-3.511032E3,6.9463335E3,7.646674E2,-3.5665234E3,3.3050967E3,-9.660551E3,-1.6430607E4,8.579564E3,1.4600566E3,8.35412E3,2.1320127E4,-9.222565E3,4.1081323E3,-6.563889E3,-1.1908217E4,-3.0494373E2,-4.4807646E3,-4.850133E2,-7.093871E3,-1.3858263E4,-2.4407877E4,2.161891E3,-9.397719E3,4.5954614E3,5.8400723E4,-1.016681E4,2.9805225E3,-1.2828866E3,3.5811643E3],"split_indices":[0,3,3,1,1,1,1,3,0,3,3,3,5,3,4,0,0,3,1,1,4,3,0,0,1,7,0,0,9,9,1,0,0,0,0,0,0,0,0,0,0,0,0,0,0,0,0,0,0,0,0,0,0,0,0,0,0,0,0,0,0],"split_type":[0,0,0,0,0,0,0,0,0,0,0,0,0,0,0,0,0,0,0,0,0,0,0,0,0,0,0,0,0,0,0,0,0,0,0,0,0,0,0,0,0,0,0,0,0,0,0,0,0,0,0,0,0,0,0,0,0,0,0,0,0],"sum_hessian":[6.173E4,5.9802E4,1.928E3,5.9182E4,6.2E2,3.88E2,1.54E3,5.8858E4,3.24E2,5.74E2,4.6E1,3.66E2,2.2E1,5.33E2,1.007E3,5.774E4,1.118E3,2.73E2,5.1E1,4.56E2,1.18E2,4.3E1,3E0,1.39E2,2.27E2,4E0,1.8E1,4.79E2,5.4E1,7.7E1,9.3E2,5.7167E4,5.73E2,2.82E2,8.36E2,2.38E2,3.5E1,4.5E1,6E0,1.17E2,3.39E2,1.04E2,1.4E1,3E1,1.3E1,9.2E1,4.7E1,8.1E1,1.46E2,1E0,3E0,1.5E1,3E0,4.48E2,3.1E1,5E1,4E0,7E1,7E0,7.26E2,2.04E2],"tree_param":{"num_deleted":"0","num_feature":"17","num_nodes":"61","size_leaf_vector":"1"}},{"base_weights":[9.828806E-1,8.398891E2,-4.40645E2,9.495922E2,-3.1502203E4,-5.095185E2,1.488215E4,8.3369385E2,7.533109E4,4.2553403E3,-7.389007E4,-4.046759E2,-1.00899164E5,1.4478358E5,-2.0649582E4,9.125551E2,-2.3790839E5,2.5067242E5,-6.708992E2,9.622733E4,-2.9609566E4,-1.2546361E5,-3.4094086E4,-3.646285E2,-3.781536E4,-4.432876E4,-1.9005552E5,-1.2504827E5,2.1845142E5,-4.6856812E4,-5.8253503E2,2.1621431E2,4.1862393E3,-3.8231867E4,-1.3510822E5,4.3083184E4,-1.7129914E4,-2.2977795E3,1.70264E5,1.0637339E3,-5.8828637E4,-1.9001186E4,-6.738706E4,-1.8060562E4,1.6880895E4,-1.3599608E2,7.725763E3,-1.03213766E5,-4.345777E3,-1.5721695E4,2.485054E4,-1.2060097E4,-7.099717E4,-1.5342261E4,-7.674484E4,1.6108599E4,9.191475E4,-8.061124E3,-3.0791498E4,-3.763084E4,2.7461646E3],"categories":[],"categories_nodes":[],"categories_segments":[],"categories_sizes":[],"default_left":[0,0,0,0,0,0,0,0,0,0,0,0,0,0,0,0,0,0,0,0,0,0,0,0,0,0,0,0,0,0,0,0,0,0,0,0,0,0,0,0,0,0,0,0,0,0,0,0,0,0,0,0,0,0,0,0,0,0,0,0,0],"id":27,"left_children":[1,3,5,7,9,11,13,15,17,19,21,23,25,27,29,31,33,-1,35,37,39,41,43,45,47,49,51,53,55,57,59,-1,-1,-1,-1,-1,-1,-1,-1,-1,-1,-1,-1,-1,-1,-1,-1,-1,-1,-1,-1,-1,-1,-1,-1,-1,-1,-1,-1,-1,-1],"loss_changes":[2.287074E10,7.556745E10,4.2687427E10,1.8285976E11,1.0944382E11,4.2372124E11,8.3841745E11,3.991155E11,1.9073014E12,1.2743415E11,6.3452266E10,6.0245328E10,2.0340674E11,8.025562E11,7.517666E10,5.2982817E10,1.0689174E11,0E0,2.6059076E11,5.429483E11,1.6629223E11,7.201913E10,5.0571477E10,9.308136E10,3.0221615E11,3.20724E10,1.0222246E11,7.389974E10,4.3265137E11,6.6364105E10,1.0082961E11,0E0,0E0,0E0,0E0,0E0,0E0,0E0,0E0,0E0,0E0,0E0,0E0,0E0,0E0,0E0,0E0,0E0,0E0,0E0,0E0,0E0,0E0,0E0,0E0,0E0,0E0,0E0,0E0,0E0,0E0],"parents":[2147483647,0,0,1,1,2,2,3,3,4,4,5,5,6,6,7,7,8,8,9,9,10,10,11,11,12,12,13,13,14,14,15,15,16,16,18,18,19,19,20,20,21,21,22,22,23,23,24,24,25,25,26,26,27,27,28,28,29,29,30,30],"right_children":[2,4,6,8,10,12,14,16,18,20,22,24,26,28,30,32,34,-1,36,38,40,42,44,46,48,50,52,54,56,58,60,-1,-1,-1,-1,-1,-1,-1,-1,-1,-1,-1,-1,-1,-1,-1,-1,-1,-1,-1,-1,-1,-1,-1,-1,-1,-1,-1,-1,-1,-1],"split_conditions":[5E0,5.264343E5,5.264343E5,4.792059E5,5.62042E5,5.62042E5,7E0,5.1668725E5,3.21E0,2.022E3,2.022E3,5.490732E5,4.792059E5,5.62042E5,5.490732E5,2.2609519E5,2.9739303E5,2.5067242E5,2.022E3,5.490732E5,5.1668725E5,3E0,1E0,3.912932E5,2.84E1,1E0,5.490732E5,5.490732E5,2.022E3,5.1668725E5,5.62042E5,2.1621431E2,4.1862393E3,-3.8231867E4,-1.3510822E5,4.3083184E4,-1.7129914E4,-2.2977795E3,1.70264E5,1.0637339E3,-5.8828637E4,-1.9001186E4,-6.738706E4,-1.8060562E4,1.6880895E4,-1.3599608E2,7.725763E3,-1.03213766E5,-4.345777E3,-1.5721695E4,2.485054E4,-1.2060097E4,-7.099717E4,-1.5342261E4,-7.674484E4,1.6108599E4,9.191475E4,-8.061124E3,-3.0791498E4,-3.763084E4,2.7461646E3],"split_indices":[5,2,2,4,1,1,5,3,2,6,6,0,4,1,0,4,1,0,6,0,3,5,8,3,1,9,0,0,6,3,1,0,0,0,0,0,0,0,0,0,0,0,0,0,0,0,0,0,0,0,0,0,0,0,0,0,0,0,0,0,0],"split_type":[0,0,0,0,0,0,0,0,0,0,0,0,0,0,0,0,0,0,0,0,0,0,0,0,0,0,0,0,0,0,0,0,0,0,0,0,0,0,0,0,0,0,0,0,0,0,0,0,0,0,0,0,0,0,0,0,0,0,0,0,0],"sum_hessian":[6.173E4,2.1289E4,4.0441E4,2.1218E4,7.1E1,4.0261E4,1.8E2,2.1186E4,3.2E1,3.9E1,3.2E1,4.022E4,4.1E1,3.8E1,1.42E2,2.118E4,6E0,2E0,3E1,1E1,2.9E1,1.3E1,1.9E1,4.0178E4,4.2E1,2.6E1,1.5E1,8E0,3E1,6.1E1,8.1E1,2.0874E4,3.06E2,5E0,1E0,8E0,2.2E1,9E0,1E0,2.5E1,4E0,9E0,4E0,1.5E1,4E0,4.0043E4,1.35E2,2E0,4E1,2.5E1,1E0,4E0,1.1E1,6E0,2E0,1.1E1,1.9E1,4.6E1,1.5E1,5E0,7.6E1],"tree_param":{"num_deleted":"0","num_feature":"17","num_nodes":"61","size_leaf_vector":"1"}},{"base_weights":[-9.544414E-1,1.4154979E2,-2.287909E3,-6.770919E1,8.182166E3,-8.280734E3,-3.1438513E2,3.377886E1,-1.3210723E4,2.0874434E4,5.8910127E3,-1.4589801E4,-6.1087515E3,6.4897734E3,-1.9872932E3,-1.164006E2,3.137629E3,1.6957402E3,-1.4645424E4,2.2491812E4,-5.1083438E3,7.6964575E3,-4.9543955E3,-1.0132842E4,-3.3098996E4,3.2829307E3,-1.0294431E4,7.3608794E3,-3.349293E4,-5.2340513E3,2.4019749E3,3.0347326E1,-1.5843975E3,4.1488384E3,2.8952795E2,-3.167138E3,1.273034E3,-3.3027168E3,-6.1417754E3,5.1679336E3,1.0852579E4,-1.526438E4,1.438E4,1.0979332E3,5.2553E3,-4.928157E3,2.5539785E3,-5.1855254E3,-2.2128735E3,-7.3313394E3,-1.2194816E4,1.7990217E3,-2.6832551E3,-2.1172603E3,-5.559473E3,2.7722783E3,-4.6550396E3,-1.3490694E2,-3.429584E3,5.0519517E3,-2.5362953E2],"categories":[],"categories_nodes":[],"categories_segments":[],"categories_sizes":[],"default_left":[0,0,0,0,0,0,0,0,0,0,0,0,0,0,0,0,0,0,0,0,0,0,0,0,0,0,0,0,0,0,0,0,0,0,0,0,0,0,0,0,0,0,0,0,0,0,0,0,0,0,0,0,0,0,0,0,0,0,0,0,0],"id":28,"left_children":[1,3,5,7,9,11,13,15,17,19,21,23,25,27,29,31,33,35,37,39,41,43,45,47,49,51,53,55,-1,57,59,-1,-1,-1,-1,-1,-1,-1,-1,-1,-1,-1,-1,-1,-1,-1,-1,-1,-1,-1,-1,-1,-1,-1,-1,-1,-1,-1,-1,-1,-1],"loss_changes":[2.01185E10,9.777646E10,4.2822906E10,7.554753E10,4.2740842E10,1.2202639E10,3.103084E10,2.6199456E10,9.306497E9,9.570288E9,2.451411E10,1.8555912E10,2.6332561E10,5.6185356E10,3.1193522E10,6.024286E10,6.0241093E10,1.2622502E9,8.1657364E9,1.4651097E10,3.642912E10,4.2435416E10,2.7797436E10,3.5396506E9,1.8840166E9,6.922319E9,1.2214088E10,2.3154352E10,0E0,3.72983E10,4.3664744E10,0E0,0E0,0E0,0E0,0E0,0E0,0E0,0E0,0E0,0E0,0E0,0E0,0E0,0E0,0E0,0E0,0E0,0E0,0E0,0E0,0E0,0E0,0E0,0E0,0E0,0E0,0E0,0E0,0E0,0E0],"parents":[2147483647,0,0,1,1,2,2,3,3,4,4,5,5,6,6,7,7,8,8,9,9,10,10,11,11,12,12,13,13,14,14,15,15,16,16,17,17,18,18,19,19,20,20,21,21,22,22,23,23,24,24,25,25,26,26,27,27,29,29,30,30],"right_children":[2,4,6,8,10,12,14,16,18,20,22,24,26,28,30,32,34,36,38,40,42,44,46,48,50,52,54,56,-1,58,60,-1,-1,-1,-1,-1,-1,-1,-1,-1,-1,-1,-1,-1,-1,-1,-1,-1,-1,-1,-1,-1,-1,-1,-1,-1,-1,-1,-1,-1,-1],"split_conditions":[1.5977964E5,1.3913881E5,1.749245E5,1.454245E5,1.3762945E5,1.3569548E5,1.9450423E5,1.0573171E5,3.4779E3,2.067714E5,2.3625862E5,1.1384561E5,1.3762945E5,3.912932E5,2.9382803E5,9.454618E4,1.0374238E5,4.6055188E4,1.6514627E5,1.5293408E5,6E0,1.6794227E5,2.181374E5,9.918491E4,1.7221116E5,2.4615422E5,1.876258E5,4.0429347E5,-3.349293E4,2.293638E5,2.9739303E5,3.0347326E1,-1.5843975E3,4.1488384E3,2.8952795E2,-3.167138E3,1.273034E3,-3.3027168E3,-6.1417754E3,5.1679336E3,1.0852579E4,-1.526438E4,1.438E4,1.0979332E3,5.2553E3,-4.928157E3,2.5539785E3,-5.1855254E3,-2.2128735E3,-7.3313394E3,-1.2194816E4,1.7990217E3,-2.6832551E3,-2.1172603E3,-5.559473E3,2.7722783E3,-4.6550396E3,-1.3490694E2,-3.429584E3,5.0519517E3,-2.5362953E2],"split_indices":[1,3,3,0,0,3,0,3,1,3,0,0,0,3,3,0,0,4,0,3,5,3,3,3,1,1,1,1,0,1,1,0,0,0,0,0,0,0,0,0,0,0,0,0,0,0,0,0,0,0,0,0,0,0,0,0,0,0,0,0,0],"split_type":[0,0,0,0,0,0,0,0,0,0,0,0,0,0,0,0,0,0,0,0,0,0,0,0,0,0,0,0,0,0,0,0,0,0,0,0,0,0,0,0,0,0,0,0,0,0,0,0,0,0,0,0,0,0,0,0,0,0,0,0,0],"sum_hessian":[6.173E4,5.811E4,3.62E3,5.6637E4,1.473E3,8.96E2,2.724E3,5.6204E4,4.33E2,2.24E2,1.249E3,2.28E2,6.68E2,5.37E2,2.187E3,5.3611E4,2.593E3,3.8E1,3.95E2,2.11E2,1.3E1,1.071E3,1.78E2,1.85E2,4.3E1,2.06E2,4.62E2,5.34E2,3E0,1.257E3,9.3E2,5.1445E4,2.166E3,4.37E2,2.156E3,6E0,3.2E1,2.45E2,1.5E2,1.54E2,5.7E1,7E0,6E0,7.6E2,3.11E2,9.6E1,8.2E1,5E1,1.35E2,2.2E1,2.1E1,1.69E2,3.7E1,3.33E2,1.29E2,4.94E2,4E1,7.1E2,5.47E2,1.7E2,7.6E2],"tree_param":{"num_deleted":"0","num_feature":"17","num_nodes":"61","size_leaf_vector":"1"}},{"base_weights":[-1.6232488E0,-4.755229E0,2.9000326E4,-7.795927E0,2.8154176E4,-5.837665E2,4.695804E2,-3.8404718E2,-5.2465044E3,2.946722E3,-1.4811789E2,-7.933502E1,-1.8453649E3,-1.3559542E3,-4.0061975E3,2.2817178E3,6.9288605E2,-8.744191E2,6.05169E1],"categories":[],"categories_nodes":[],"categories_segments":[],"categories_sizes":[],"default_left":[0,0,0,0,0,0,0,0,0,0,0,0,0,0,0,0,0,0,0],"id":29,"left_children":[1,3,-1,5,-1,7,9,11,13,15,17,-1,-1,-1,-1,-1,-1,-1,-1],"loss_changes":[1.8690544E10,1.7616968E10,0E0,1.6972954E10,0E0,2.6050322E10,5.164831E10,1.8502631E10,6.70882E9,1.9979596E10,2.6150613E10,0E0,0E0,0E0,0E0,0E0,0E0,0E0,0E0],"parents":[2147483647,0,0,1,1,3,3,5,5,6,6,7,7,8,8,9,9,10,10],"right_children":[2,4,-1,6,-1,8,10,12,14,16,18,-1,-1,-1,-1,-1,-1,-1,-1],"split_conditions":[5.4590825E6,5.4590825E6,2.9000326E4,2.9714027E4,2.8154176E4,3.086965E4,3.615256E4,3.350537E4,3.122394E4,2.766891E4,4.237648E4,-7.933502E1,-1.8453649E3,-1.3559542E3,-4.0061975E3,2.2817178E3,6.9288605E2,-8.744191E2,6.05169E1],"split_indices":[0,1,0,3,0,1,1,0,0,0,3,0,0,0,0,0,0,0,0],"split_type":[0,0,0,0,0,0,0,0,0,0,0,0,0,0,0,0,0,0,0],"sum_hessian":[6.173E4,6.1729E4,1E0,6.1728E4,1E0,2.7975E4,3.3753E4,2.6827E4,1.148E3,6.736E3,2.7017E4,2.6283E4,5.44E2,1.055E3,9.3E1,8.09E2,5.927E3,3.032E3,2.3985E4],"tree_param":{"num_deleted":"0","num_feature":"17","num_nodes":"19","size_leaf_vector":"1"}},{"base_weights":[-2.930379E-1,2.4437132E2,-1.17621E3,-6.393648E1,7.332586E3,-4.9175747E3,-2.1794851E1,1.0053858E2,-6.2869385E3,1.7641633E4,5.295615E3,-3.9559165E3,-1.4797903E4,7.2536577E3,-6.6062164E2,-1.7618704E2,3.152868E3,-1.0455212E4,-3.260338E3,5.9713145E3,1.8997781E4,2.0155382E3,7.5847383E3,-6.837787E3,-2.0205526E3,-2.3352797E4,-1.1840586E4,6.836845E3,6.015525E4,-3.6710222E3,2.0464519E2,1.711914E1,-1.149035E3,2.2243826E3,2.113496E2,-2.835035E3,-5.4083984E3,-3.130006E2,-2.3922346E3,4.0387458E3,-2.34969E3,5.963504E3,1.7295673E3,1.3509888E3,-7.2631775E2,3.3345193E3,1.062542E3,-1.4058306E3,-4.783935E3,4.5427875E2,-1.1997109E3,-8.543748E3,-6.234806E3,-2.267701E3,-5.8050283E3,2.2804302E3,-6.6509746E3,-1.2047657E3,2.3160602E4,-4.1641357E2,-4.300718E3,1.1036139E3,-4.9146927E2],"categories":[],"categories_nodes":[],"categories_segments":[],"categories_sizes":[],"default_left":[0,0,0,0,0,0,0,0,0,0,0,0,0,0,0,0,0,0,0,0,0,0,0,0,0,0,0,0,0,0,0,0,0,0,0,0,0,0,0,0,0,0,0,0,0,0,0,0,0,0,0,0,0,0,0,0,0,0,0,0,0,0,0],"id":30,"left_children":[1,3,5,7,9,11,13,15,17,19,21,23,25,27,29,31,33,35,37,39,41,43,45,47,49,51,53,55,57,59,61,-1,-1,-1,-1,-1,-1,-1,-1,-1,-1,-1,-1,-1,-1,-1,-1,-1,-1,-1,-1,-1,-1,-1,-1,-1,-1,-1,-1,-1,-1,-1,-1],"loss_changes":[1.7760602E10,1.1167196E11,4.5920432E10,5.0123854E10,4.463493E10,2.3761723E10,3.7772444E10,4.030002E10,1.5874306E10,5.441716E9,1.3349839E10,1.273627E10,5.339988E9,1.4053548E10,1.946121E10,3.728415E10,4.137727E10,3.8636585E9,7.6414147E9,4.034841E9,3.5441705E9,8.1011553E9,1.4918595E10,1.7917137E10,9.580257E9,1.4594458E8,5.223215E9,1.4628725E10,5.779583E9,4.059135E10,3.716484E10,0E0,0E0,0E0,0E0,0E0,0E0,0E0,0E0,0E0,0E0,0E0,0E0,0E0,0E0,0E0,0E0,0E0,0E0,0E0,0E0,0E0,0E0,0E0,0E0,0E0,0E0,0E0,0E0,0E0,0E0,0E0,0E0],"parents":[2147483647,0,0,1,1,2,2,3,3,4,4,5,5,6,6,7,7,8,8,9,9,10,10,11,11,12,12,13,13,14,14,15,15,16,16,17,17,18,18,19,19,20,20,21,21,22,22,23,23,24,24,25,25,26,26,27,27,28,28,29,29,30,30],"right_children":[2,4,6,8,10,12,14,16,18,20,22,24,26,28,30,32,34,36,38,40,42,44,46,48,50,52,54,56,58,60,62,-1,-1,-1,-1,-1,-1,-1,-1,-1,-1,-1,-1,-1,-1,-1,-1,-1,-1,-1,-1,-1,-1,-1,-1,-1,-1,-1,-1,-1,-1,-1,-1],"split_conditions":[8.659914E4,8.319552E4,9.918491E4,8.184313E4,8.184313E4,1.0209978E5,9.899042E4,6.1979965E4,7.298251E4,3.806276E4,9.198151E4,8.319552E4,9.198151E4,5.264343E5,1.2150124E5,5.56594E4,6.349057E4,7.031476E4,7.498898E4,2.022E3,1.19165086E5,9.743702E4,1.2080234E5,7.84135E4,8.411796E4,8.2070414E4,1.0182295E5,4.0429347E5,3.28363E3,1.2625505E5,1.4942864E5,1.711914E1,-1.149035E3,2.2243826E3,2.113496E2,-2.835035E3,-5.4083984E3,-3.130006E2,-2.3922346E3,4.0387458E3,-2.34969E3,5.963504E3,1.7295673E3,1.3509888E3,-7.2631775E2,3.3345193E3,1.062542E3,-1.4058306E3,-4.783935E3,4.5427875E2,-1.1997109E3,-8.543748E3,-6.234806E3,-2.267701E3,-5.8050283E3,2.2804302E3,-6.6509746E3,-1.2047657E3,2.3160602E4,-4.1641357E2,-4.300718E3,1.1036139E3,-4.9146927E2],"split_indices":[1,3,3,0,0,0,0,3,3,0,3,3,3,2,3,1,1,1,1,6,3,0,0,0,0,3,1,1,0,0,1,0,0,0,0,0,0,0,0,0,0,0,0,0,0,0,0,0,0,0,0,0,0,0,0,0,0,0,0,0,0,0,0],"split_type":[0,0,0,0,0,0,0,0,0,0,0,0,0,0,0,0,0,0,0,0,0,0,0,0,0,0,0,0,0,0,0,0,0,0,0,0,0,0,0,0,0,0,0,0,0,0,0,0,0,0,0,0,0,0,0,0,0,0,0,0,0,0,0],"sum_hessian":[6.173E4,5.1099E4,1.0631E4,4.897E4,2.129E3,2.506E3,8.125E3,4.771E4,1.26E3,3.5E2,1.779E3,2.285E3,2.21E2,6.55E2,7.47E3,4.3745E4,3.965E3,5.29E2,7.31E2,3.7E1,3.13E2,7.32E2,1.047E3,9.17E2,1.368E3,5.5E1,1.66E2,6.51E2,4E0,1.667E3,5.803E3,4.1121E4,2.624E3,1.446E3,2.519E3,4.69E2,6E1,4.98E2,2.33E2,2.4E1,1.3E1,2.93E2,2E1,4.69E2,2.63E2,5.58E2,4.89E2,7.43E2,1.74E2,4.91E2,8.77E2,1.5E1,4E1,1.07E2,5.9E1,6.35E2,1.6E1,1E0,3E0,1.374E3,2.93E2,2.011E3,3.792E3],"tree_param":{"num_deleted":"0","num_feature":"17","num_nodes":"63","size_leaf_vector":"1"}},{"base_weights":[-3.9205766E-1,-3.0621839E0,2.4723977E4,1.5289839E2,-1.4394932E3,-3.5086412E0,5.6373784E3,-6.0336157E3,3.6042303E2,8.700183E1,-6.766851E3,1.0805629E4,3.2530913E3,-5.128869E3,-1.883199E4,8.696912E3,-6.457237E2,-4.6842346E1,6.846216E2,-1.2559438E3,-3.0967231E3,2.3054216E3,3.853738E3,-3.793589E2,1.9228438E3,-2.2643994E3,-7.340891E2,-5.119752E3,-1.0542046E4,3.0504631E3,-3.7114954E3,1.0991667E3,-4.8182404E2],"categories":[],"categories_nodes":[],"categories_segments":[],"categories_sizes":[],"default_left":[0,0,0,0,0,0,0,0,0,0,0,0,0,0,0,0,0,0,0,0,0,0,0,0,0,0,0,0,0,0,0,0,0],"id":31,"left_children":[1,3,-1,5,7,9,11,13,15,17,19,21,23,25,27,29,31,-1,-1,-1,-1,-1,-1,-1,-1,-1,-1,-1,-1,-1,-1,-1,-1],"loss_changes":[1.3584457E10,1.3829383E10,0E0,4.7767245E10,4.9996767E10,3.3143794E10,1.8990932E10,1.9611357E10,3.6450304E10,2.8515725E10,6.5166664E9,3.002073E9,1.5094511E10,1.0303742E10,2.6261996E9,1.4632923E10,1.6056013E10,0E0,0E0,0E0,0E0,0E0,0E0,0E0,0E0,0E0,0E0,0E0,0E0,0E0,0E0,0E0,0E0],"parents":[2147483647,0,0,1,1,3,3,4,4,5,5,6,6,7,7,8,8,9,9,10,10,11,11,12,12,13,13,14,14,15,15,16,16],"right_children":[2,4,-1,6,8,10,12,14,16,18,20,22,24,26,28,30,32,-1,-1,-1,-1,-1,-1,-1,-1,-1,-1,-1,-1,-1,-1,-1,-1],"split_conditions":[5.4590825E6,1.2153269E5,2.4723977E4,1.1445544E5,1.3913881E5,1.1620221E5,1.2361706E5,1.454245E5,1.411982E5,7.559083E4,1.287443E5,1.19165086E5,1.2939954E5,1.2150124E5,1.5977964E5,4.0429347E5,4E0,-4.6842346E1,6.846216E2,-1.2559438E3,-3.0967231E3,2.3054216E3,3.853738E3,-3.793589E2,1.9228438E3,-2.2643994E3,-7.340891E2,-5.119752E3,-1.0542046E4,3.0504631E3,-3.7114954E3,1.0991667E3,-4.8182404E2],"split_indices":[0,1,0,3,3,0,0,0,0,3,0,3,3,3,1,1,5,0,0,0,0,0,0,0,0,0,0,0,0,0,0,0,0],"split_type":[0,0,0,0,0,0,0,0,0,0,0,0,0,0,0,0,0,0,0,0,0,0,0,0,0,0,0,0,0,0,0,0,0],"sum_hessian":[6.173E4,6.1729E4,1E0,5.5684E4,6.045E3,5.4141E4,1.543E3,1.701E3,4.344E3,5.3427E4,7.14E2,4.86E2,1.057E3,1.59E3,1.11E2,4.67E2,3.877E3,4.81E4,5.327E3,4.15E2,2.99E2,1.94E2,2.92E2,4.35E2,6.22E2,8.35E2,7.55E2,1.02E2,9E0,4.37E2,3E1,7.06E2,3.171E3],"tree_param":{"num_deleted":"0","num_feature":"17","num_nodes":"33","size_leaf_vector":"1"}},{"base_weights":[-1.1231438E-1,-2.7125754E0,2.4077102E4,2.2433939E2,-8.929298E2,1.9781757E1,5.4378496E3,-4.3503438E3,-1.6977242E2,1.3536667E2,-5.1351235E3,1.1912658E4,3.6859785E3,-3.4316296E3,-1.3906251E4,6.524548E3,-5.494635E2,-7.35782E1,5.4563086E2,-2.6299736E3,-8.6993475E2,4.177603E3,4.4405344E2,1.0493363E3,1.0110196E4,-1.854514E3,-3.9749777E2,-3.414134E3,-5.718343E3,2.4659233E3,-1.2448975E3,-4.6280728E2,2.7996194E2],"categories":[],"categories_nodes":[],"categories_segments":[],"categories_sizes":[],"default_left":[0,0,0,0,0,0,0,0,0,0,0,0,0,0,0,0,0,0,0,0,0,0,0,0,0,0,0,0,0,0,0,0,0],"id":32,"left_children":[1,3,-1,5,7,9,11,13,15,17,19,21,23,25,27,29,31,-1,-1,-1,-1,-1,-1,-1,-1,-1,-1,-1,-1,-1,-1,-1,-1],"loss_changes":[1.2882826E10,1.2477411E10,0E0,5.2454957E10,3.136496E10,2.8201296E10,2.1020099E10,1.900302E10,2.6377032E10,2.9662644E10,8.4005847E9,8.273318E9,8.145871E9,1.1468589E10,2.2569247E9,1.0112954E10,1.4462649E10,0E0,0E0,0E0,0E0,0E0,0E0,0E0,0E0,0E0,0E0,0E0,0E0,0E0,0E0,0E0,0E0],"parents":[2147483647,0,0,1,1,3,3,4,4,5,5,6,6,7,7,8,8,9,9,10,10,11,11,12,12,13,13,14,14,15,15,16,16],"right_children":[2,4,-1,6,8,10,12,14,16,18,20,22,24,26,28,30,32,-1,-1,-1,-1,-1,-1,-1,-1,-1,-1,-1,-1,-1,-1,-1,-1],"split_conditions":[5.4590825E6,7.709719E4,2.4077102E4,7.778105E4,8.4432586E4,7.84135E4,7.84135E4,8.759145E4,8.060861E4,4.6626574E4,6.652307E4,1.0253044E5,3.912932E5,7.21671E4,9.743702E4,1.9749245E5,1.5293408E5,-7.35782E1,5.4563086E2,-2.6299736E3,-8.6993475E2,4.177603E3,4.4405344E2,1.0493363E3,1.0110196E4,-1.854514E3,-3.9749777E2,-3.414134E3,-5.718343E3,2.4659233E3,-1.2448975E3,-4.6280728E2,2.7996194E2],"split_indices":[1,1,0,3,3,0,0,0,0,3,3,3,3,3,0,1,3,0,0,0,0,0,0,0,0,0,0,0,0,0,0,0,0],"split_type":[0,0,0,0,0,0,0,0,0,0,0,0,0,0,0,0,0,0,0,0,0,0,0,0,0,0,0,0,0,0,0,0,0],"sum_hessian":[6.173E4,6.1729E4,1E0,4.9185E4,1.2544E4,4.7329E4,1.856E3,2.169E3,1.0375E4,4.6292E4,1.037E3,3.94E2,1.462E3,1.98E3,1.89E2,5.56E2,9.819E3,3.7756E4,8.536E3,3.94E2,6.43E2,3.3E2,6.4E1,1.454E3,8E0,8.58E2,1.122E3,1.29E2,6E1,4.8E2,7.6E1,5.88E3,3.939E3],"tree_param":{"num_deleted":"0","num_feature":"17","num_nodes":"33","size_leaf_vector":"1"}},{"base_weights":[3.49811E-1,7.848362E1,-2.7621267E3,-9.421582E0,8.815512E3,-1.7771963E4,-3.1510205E2,9.052598E1,-5.0978354E3,1.786421E4,2.0822737E3,-1.4032335E3,-1.9686588E4,6.2753096E3,-3.0157866E3,2.4572939E1,9.113405E3,6.9469244E2,-7.192512E3,2.900048E4,1.2321706E4,3.055059E3,-2.441047E4,3.0869547E4,-8.674173E3,-4.6432582E4,-1.8140318E4,-6.995541E4,9.234861E3,5.286275E1,-1.9117271E4,2.5062038E1,-2.0431646E3,3.967806E3,-7.696589E2,-8.943606E2,2.6555205E3,-1.8492484E3,-6.619687E3,-5.85852E2,1.072733E4,2.7081455E3,7.3551143E3,4.1481366E2,9.397249E3,2.3502188E3,1.3084556E4,1.1424126E3,-7.210091E3,-5.8869014E3,-1.7684717E4,-5.040609E3,-1.1412375E4,-8.0836357E3,-2.7920049E4,-2.0460384E1,1.5654843E4,6.2224945E2,-8.350545E3,-1.9548523E4,6.4353335E3],"categories":[],"categories_nodes":[],"categories_segments":[],"categories_sizes":[],"default_left":[0,0,0,0,0,0,0,0,0,0,0,0,0,0,0,0,0,0,0,0,0,0,0,0,0,0,0,0,0,0,0,0,0,0,0,0,0,0,0,0,0,0,0,0,0,0,0,0,0,0,0,0,0,0,0,0,0,0,0,0,0],"id":33,"left_children":[1,3,5,7,9,11,13,15,17,19,21,23,25,27,29,31,33,35,37,39,41,43,-1,45,47,49,51,53,55,57,59,-1,-1,-1,-1,-1,-1,-1,-1,-1,-1,-1,-1,-1,-1,-1,-1,-1,-1,-1,-1,-1,-1,-1,-1,-1,-1,-1,-1,-1,-1],"loss_changes":[1.332441E10,4.6108004E10,6.236099E10,3.0228607E10,3.639717E10,7.4312827E9,2.6022713E10,3.4689143E10,1.3897826E10,1.5381996E10,2.8174305E10,6.3687567E9,7.96663E9,9.6529736E10,5.1238986E10,2.3325352E10,2.035103E10,9.171638E9,1.272689E10,1.7639293E10,6.689331E9,1.6077715E10,0E0,1.1263258E9,4.309363E9,2.5344164E9,4.767363E9,1.3396607E10,1.6381801E11,4.9212453E10,3.1147744E11,0E0,0E0,0E0,0E0,0E0,0E0,0E0,0E0,0E0,0E0,0E0,0E0,0E0,0E0,0E0,0E0,0E0,0E0,0E0,0E0,0E0,0E0,0E0,0E0,0E0,0E0,0E0,0E0,0E0,0E0],"parents":[2147483647,0,0,1,1,2,2,3,3,4,4,5,5,6,6,7,7,8,8,9,9,10,10,11,11,12,12,13,13,14,14,15,15,16,16,17,17,18,18,19,19,20,20,21,21,23,23,24,24,25,25,26,26,27,27,28,28,29,29,30,30],"right_children":[2,4,6,8,10,12,14,16,18,20,22,24,26,28,30,32,34,36,38,40,42,44,-1,46,48,50,52,54,56,58,60,-1,-1,-1,-1,-1,-1,-1,-1,-1,-1,-1,-1,-1,-1,-1,-1,-1,-1,-1,-1,-1,-1,-1,-1,-1,-1,-1,-1,-1,-1],"split_conditions":[2.3625862E5,2.067714E5,2.280599E5,1.7221116E5,2.1698025E5,4.447967E4,1E0,1.6794227E5,4E0,2.0329081E5,3.912932E5,2E0,6.85789E4,2.021E3,5.490732E5,1.6514627E5,2.0329081E5,1.8186506E5,2.4615422E5,5.025769E4,2.280599E5,2.9382803E5,-2.441047E4,1.749245E5,2.7498375E5,6E0,2.4615422E5,1.1E1,5.490732E5,5.264343E5,2.022E3,2.5062038E1,-2.0431646E3,3.967806E3,-7.696589E2,-8.943606E2,2.6555205E3,-1.8492484E3,-6.619687E3,-5.85852E2,1.072733E4,2.7081455E3,7.3551143E3,4.1481366E2,9.397249E3,2.3502188E3,1.3084556E4,1.1424126E3,-7.210091E3,-5.8869014E3,-1.7684717E4,-5.040609E3,-1.1412375E4,-8.0836357E3,-2.7920049E4,-2.0460384E1,1.5654843E4,6.2224945E2,-8.350545E3,-1.9548523E4,6.4353335E3],"split_indices":[0,3,3,1,1,1,7,3,5,0,3,5,1,6,0,0,0,3,1,2,3,3,0,3,0,5,1,5,0,2,6,0,0,0,0,0,0,0,0,0,0,0,0,0,0,0,0,0,0,0,0,0,0,0,0,0,0,0,0,0,0],"split_type":[0,0,0,0,0,0,0,0,0,0,0,0,0,0,0,0,0,0,0,0,0,0,0,0,0,0,0,0,0,0,0,0,0,0,0,0,0,0,0,0,0,0,0,0,0,0,0,0,0,0,0,0,0,0,0,0,0,0,0,0,0],"sum_hessian":[6.173E4,6.0033E4,1.697E3,5.9436E4,5.97E2,2.37E2,1.46E3,5.8292E4,1.144E3,2.54E2,3.43E2,2.5E1,2.12E2,4.24E2,1.036E3,5.787E4,4.22E2,3.04E2,8.4E2,8.3E1,1.71E2,3.4E2,3E0,4E0,2.1E1,1E1,2.02E2,1.5E1,4.09E2,8.71E2,1.65E2,5.7376E4,4.94E2,3.12E2,1.1E2,2.1E2,9.4E1,7.87E2,5.3E1,1.5E1,6.8E1,1.36E2,3.5E1,3.22E2,1.8E1,2E0,2E0,1.2E1,9E0,4E0,6E0,1.91E2,1.1E1,6E0,9E0,3.37E2,7.2E1,8.13E2,5.8E1,7.7E1,8.8E1],"tree_param":{"num_deleted":"0","num_feature":"17","num_nodes":"61","size_leaf_vector":"1"}},{"base_weights":[-9.1841924E-1,5.965233E2,-3.154314E2,6.6966174E2,-2.0966264E4,-3.75712E2,1.3095252E4,5.9538416E2,6.909538E4,6.160594E3,-5.321196E4,-2.84989E2,-5.7353812E4,1.8148158E5,-1.01488995E3,6.6187964E2,-3.9628574E4,-4.2310363E4,2.8326994E5,8.3348266E4,-2.2346906E4,1.3898617E4,-6.1128414E4,-3.415515E2,1.4920854E4,-7.606323E4,8.312001E4,-5.795483E4,2.2516212E5,-2.8867537E4,1.7747436E4,1.5428824E2,2.379588E3,3.5743074E4,-1.9187594E4,-1.15674305E5,1.8839241E3,-2.3073133E4,1.544281E5,-9.4946796E2,1.4227198E5,1.0164312E3,-4.5509875E4,-3.04461E4,-9.089211E3,-9.437556E1,-1.089152E4,1.151017E4,1.6993983E3,-9.135175E3,-5.1959684E4,8.45316E4,-9.017797E3,3.391562E4,7.872824E4,-5.071419E3,-2.000704E4,-3.119187E4,7.958846E3],"categories":[],"categories_nodes":[],"categories_segments":[],"categories_sizes":[],"default_left":[0,0,0,0,0,0,0,0,0,0,0,0,0,0,0,0,0,0,0,0,0,0,0,0,0,0,0,0,0,0,0,0,0,0,0,0,0,0,0,0,0,0,0,0,0,0,0,0,0,0,0,0,0,0,0,0,0,0,0],"id":34,"left_children":[1,3,5,7,9,11,13,15,17,19,21,23,25,27,29,31,33,35,37,39,41,-1,43,45,47,49,51,-1,53,55,57,-1,-1,-1,-1,-1,-1,-1,-1,-1,-1,-1,-1,-1,-1,-1,-1,-1,-1,-1,-1,-1,-1,-1,-1,-1,-1,-1,-1],"loss_changes":[1.159964E10,3.3589821E10,3.2698405E10,1.0780433E11,6.330798E10,2.0810696E11,4.3023204E11,5.6722067E10,5.607716E11,8.987968E10,2.8836307E10,3.457948E10,1.7452614E11,2.7261505E11,8.8305844E10,2.2702936E10,1.4282306E11,2.6929427E11,7.066166E11,3.734909E11,1.0038074E11,0E0,3.549842E10,3.8830215E10,3.2119263E10,2.4727116E11,1.8833628E11,0E0,2.4643633E10,2.96402E10,1.1072271E11,0E0,0E0,0E0,0E0,0E0,0E0,0E0,0E0,0E0,0E0,0E0,0E0,0E0,0E0,0E0,0E0,0E0,0E0,0E0,0E0,0E0,0E0,0E0,0E0,0E0,0E0,0E0,0E0],"parents":[2147483647,0,0,1,1,2,2,3,3,4,4,5,5,6,6,7,7,8,8,9,9,10,10,11,11,12,12,13,13,14,14,15,15,16,16,17,17,18,18,19,19,20,20,22,22,23,23,24,24,25,25,26,26,28,28,29,29,30,30],"right_children":[2,4,6,8,10,12,14,16,18,20,22,24,26,28,30,32,34,36,38,40,42,-1,44,46,48,50,52,-1,54,56,58,-1,-1,-1,-1,-1,-1,-1,-1,-1,-1,-1,-1,-1,-1,-1,-1,-1,-1,-1,-1,-1,-1,-1,-1,-1,-1,-1,-1],"split_conditions":[5E0,5.264343E5,5.264343E5,5.62042E5,5.62042E5,5.490732E5,6E0,5.490732E5,4.792059E5,2.022E3,3.912932E5,3.912932E5,1.2E1,5.62042E5,5.490732E5,2.0102438E5,2.84E1,3.21E0,2E0,5.490732E5,5.1668725E5,1.3898617E4,2.022E3,4.1438038E5,3.3365956E5,4.792059E5,4.0429347E5,-5.795483E4,2.022E3,5.1668725E5,5.62042E5,1.5428824E2,2.379588E3,3.5743074E4,-1.9187594E4,-1.15674305E5,1.8839241E3,-2.3073133E4,1.544281E5,-9.4946796E2,1.4227198E5,1.0164312E3,-4.5509875E4,-3.04461E4,-9.089211E3,-9.437556E1,-1.089152E4,1.151017E4,1.6993983E3,-9.135175E3,-5.1959684E4,8.45316E4,-9.017797E3,3.391562E4,7.872824E4,-5.071419E3,-2.000704E4,-3.119187E4,7.958846E3],"split_indices":[5,2,2,1,1,0,5,0,4,6,3,3,5,1,0,4,1,2,5,0,3,0,6,0,2,4,1,0,6,3,1,0,0,0,0,0,0,0,0,0,0,0,0,0,0,0,0,0,0,0,0,0,0,0,0,0,0,0,0],"split_type":[0,0,0,0,0,0,0,0,0,0,0,0,0,0,0,0,0,0,0,0,0,0,0,0,0,0,0,0,0,0,0,0,0,0,0,0,0,0,0,0,0,0,0,0,0,0,0,0,0,0,0,0,0,0,0,0,0,0,0],"sum_hessian":[6.173E4,2.1289E4,4.0441E4,2.1218E4,7.1E1,4.0261E4,1.8E2,2.1196E4,2.2E1,3.9E1,3.2E1,4.0198E4,6.3E1,1.3E1,1.67E2,2.1162E4,3.4E1,1.5E1,7E0,1E1,2.9E1,2E0,3E1,4.005E4,1.48E2,5.6E1,7E0,1E0,1.2E1,6.7E1,1E2,2.0742E4,4.2E2,4E0,3E1,1E0,1.4E1,3E0,4E0,9E0,1E0,2.5E1,4E0,1.2E1,1.8E1,4.0021E4,2.9E1,4.1E1,1.07E2,3.9E1,1.7E1,2E0,5E0,4E0,8E0,5.2E1,1.5E1,6E0,9.4E1],"tree_param":{"num_deleted":"0","num_feature":"17","num_nodes":"59","size_leaf_vector":"1"}},{"base_weights":[1.4766852E0,-8.412186E2,1.8617928E2,-5.270901E2,-2.7083616E3,2.9798967E3,-7.3154366E1,-1.2127727E3,4.1987158E2,-2.1384111E3,-4.126687E3,3.0805215E3,-4.5349207E4,-1.25905235E2,4.8624307E3,-2.075832E3,-9.7179584E2,3.234907E3,-6.8625183E2,-2.0104376E3,-6.014198E3,-4.1688755E3,2.2666724E3,2.3024795E3,7.4218535E3,6.808677E4,-2.0416588E5,-4.1971462E1,-1.4240871E4,3.7768688E4,4.10841E3,-7.0413007E2,-3.768097E2,-2.6390216E2,-8.141332E2,5.528292E2,1.3178341E3,-1.2416584E2,-1.034889E3,-7.5859546E2,-4.149426E2,-1.9665822E3,-8.508399E2,-1.1769854E3,-1.8974272E3,1.2418657E3,-1.7651547E2,2.3164373E3,-4.452325E3,-1.3411222E4,9.480616E4,-1.3808119E4,-1.0178735E5,-3.0848366E1,2.780267E3,-3.5629924E3,-1.4043491E4,-2.284686E4,1.529094E3],"categories":[],"categories_nodes":[],"categories_segments":[],"categories_sizes":[],"default_left":[0,0,0,0,0,0,0,0,0,0,0,0,0,0,0,0,0,0,0,0,0,0,0,0,0,0,0,0,0,0,0,0,0,0,0,0,0,0,0,0,0,0,0,0,0,0,0,0,0,0,0,0,0,0,0,0,0,0,0],"id":35,"left_children":[1,3,5,7,9,11,13,15,17,19,21,23,25,27,29,31,33,35,37,39,41,43,-1,45,47,49,51,53,55,-1,57,-1,-1,-1,-1,-1,-1,-1,-1,-1,-1,-1,-1,-1,-1,-1,-1,-1,-1,-1,-1,-1,-1,-1,-1,-1,-1,-1,-1],"loss_changes":[9.608464E9,6.5078047E9,3.66848E10,6.1696517E9,1.2829583E9,2.105591E10,1.2063966E10,1.1441454E9,1.2429301E10,5.543393E8,2.5673267E8,1.4483546E10,1.7604072E11,5.4313E10,4.420091E10,2.6435942E8,6.89259E8,1.806933E9,2.1556654E9,3.5635814E8,4.3313024E7,2.166226E8,0E0,1.934411E10,4.4634685E9,1.8191534E11,6.985762E10,2.5821219E10,2.0312343E10,0E0,3.9109587E10,0E0,0E0,0E0,0E0,0E0,0E0,0E0,0E0,0E0,0E0,0E0,0E0,0E0,0E0,0E0,0E0,0E0,0E0,0E0,0E0,0E0,0E0,0E0,0E0,0E0,0E0,0E0,0E0],"parents":[2147483647,0,0,1,1,2,2,3,3,4,4,5,5,6,6,7,7,8,8,9,9,10,10,11,11,12,12,13,13,14,14,15,15,16,16,17,17,18,18,19,19,20,20,21,21,23,23,24,24,25,25,26,26,27,27,28,28,30,30],"right_children":[2,4,6,8,10,12,14,16,18,20,22,24,26,28,30,32,34,36,38,40,42,44,-1,46,48,50,52,54,56,-1,58,-1,-1,-1,-1,-1,-1,-1,-1,-1,-1,-1,-1,-1,-1,-1,-1,-1,-1,-1,-1,-1,-1,-1,-1,-1,-1,-1,-1],"split_conditions":[9.884297E3,7.59797E3,8.49763E3,4.1357065E3,1.086225E4,4.1438038E5,3.912932E5,3.8987E2,3.56374E3,1.194864E4,2.646639E4,4.6106074E4,5E0,3.4305266E5,7.12806E4,2.84E1,4.6643E3,5.841303E3,1.141597E4,8.331377E3,9.648333E3,9.96011E3,2.2666724E3,1.828521E4,2.4678011E5,4.792059E5,5.1668725E5,2.9382803E5,4.1438038E5,3.7768688E4,2.0622522E5,-7.0413007E2,-3.768097E2,-2.6390216E2,-8.141332E2,5.528292E2,1.3178341E3,-1.2416584E2,-1.034889E3,-7.5859546E2,-4.149426E2,-1.9665822E3,-8.508399E2,-1.1769854E3,-1.8974272E3,1.2418657E3,-1.7651547E2,2.3164373E3,-4.452325E3,-1.3411222E4,9.480616E4,-1.3808119E4,-1.0178735E5,-3.0848366E1,2.780267E3,-3.5629924E3,-1.4043491E4,-2.284686E4,1.529094E3],"split_indices":[3,1,1,3,1,0,3,3,0,0,1,3,5,1,1,1,0,3,0,3,3,0,0,0,3,4,3,3,0,0,1,0,0,0,0,0,0,0,0,0,0,0,0,0,0,0,0,0,0,0,0,0,0,0,0,0,0,0,0],"split_type":[0,0,0,0,0,0,0,0,0,0,0,0,0,0,0,0,0,0,0,0,0,0,0,0,0,0,0,0,0,0,0,0,0,0,0,0,0,0,0,0,0,0,0,0,0,0,0,0,0,0,0,0,0,0,0,0,0,0,0],"sum_hessian":[6.173E4,1.1097E4,5.0633E4,9.5E3,1.597E3,4.3E3,4.6333E4,5.51E3,3.99E3,1.141E3,4.56E2,4.292E3,8E0,4.5844E4,4.89E2,1.201E3,4.309E3,1.125E3,2.865E3,1.106E3,3.5E1,4.55E2,1E0,3.641E3,6.51E2,5E0,3E0,4.5574E4,2.7E2,2E0,4.87E2,9.01E2,3E2,4.094E3,2.15E2,5.12E2,6.13E2,2.609E3,2.56E2,6.04E2,5.02E2,2.9E1,6E0,4.11E2,4.4E1,2.226E3,1.415E3,6.43E2,8E0,4E0,1E0,2E0,1E0,4.5279E4,2.95E2,2.53E2,1.7E1,5E0,4.82E2],"tree_param":{"num_deleted":"0","num_feature":"17","num_nodes":"59","size_leaf_vector":"1"}},{"base_weights":[3.8675773E-1,6.3132446E1,-2.6063489E3,3.8957045E0,9.628818E3,-9.291861E3,1.0599193E3,5.8346825E1,-6.654162E3,1.8612855E4,2.2631443E3,-8.205109E3,-5.8240125E4,-1.2861631E4,2.1283643E3,-4.3311653E1,3.2063926E3,-1.0781134E1,-9.157162E3,4.806239E3,2.6512832E4,3.5894963E3,-1.9585027E4,-7.41529E3,-6.3222945E4,-2.1819158E4,-1.1870946E4,-6.0827236E3,-8.0766734E4,1.6630115E4,2.2835751E2,2.0013903E1,-1.3411537E3,3.6785764E3,3.470359E2,-1.181362E3,2.605554E3,-1.6993868E3,-4.9574453E3,-8.567282E3,4.272204E3,6.3540767E3,2.967149E4,-1.0545728E3,3.5863064E3,-4.8082905E3,-1.4006583E3,-2.2236111E4,-7.1958804E3,5.9890225E3,-4.228625E3,6.6876333E3,-4.1360758E4,9.168572E3,-1.136961E4,-2.6600346E4,3.1212796E2],"categories":[],"categories_nodes":[],"categories_segments":[],"categories_sizes":[],"default_left":[0,0,0,0,0,0,0,0,0,0,0,0,0,0,0,0,0,0,0,0,0,0,0,0,0,0,0,0,0,0,0,0,0,0,0,0,0,0,0,0,0,0,0,0,0,0,0,0,0,0,0,0,0,0,0,0,0],"id":36,"left_children":[1,3,5,7,9,11,13,15,17,19,21,23,25,27,29,31,33,35,37,39,41,43,-1,45,47,-1,-1,49,51,53,55,-1,-1,-1,-1,-1,-1,-1,-1,-1,-1,-1,-1,-1,-1,-1,-1,-1,-1,-1,-1,-1,-1,-1,-1,-1,-1],"loss_changes":[1.0096974E10,3.4157593E10,3.557514E10,2.1720445E10,2.450824E10,2.6864153E10,1.3979569E10,1.9017974E10,8.0812954E9,1.8087592E10,1.8600395E10,2.143207E10,9.800909E7,3.035032E10,2.402279E10,2.8041744E10,3.4489352E10,4.6102804E9,8.989725E9,1.9922375E10,3.882504E10,1.2046907E10,0E0,1.1704461E10,1.2151788E9,0E0,0E0,1.3220771E10,3.8382866E10,7.788634E10,5.582279E10,0E0,0E0,0E0,0E0,0E0,0E0,0E0,0E0,0E0,0E0,0E0,0E0,0E0,0E0,0E0,0E0,0E0,0E0,0E0,0E0,0E0,0E0,0E0,0E0,0E0,0E0],"parents":[2147483647,0,0,1,1,2,2,3,3,4,4,5,5,6,6,7,7,8,8,9,9,10,10,11,11,12,12,13,13,14,14,15,15,16,16,17,17,18,18,19,19,20,20,21,21,23,23,24,24,27,27,28,28,29,29,30,30],"right_children":[2,4,6,8,10,12,14,16,18,20,22,24,26,28,30,32,34,36,38,40,42,44,-1,46,48,-1,-1,50,52,54,56,-1,-1,-1,-1,-1,-1,-1,-1,-1,-1,-1,-1,-1,-1,-1,-1,-1,-1,-1,-1,-1,-1,-1,-1,-1,-1],"split_conditions":[2.5359028E5,2.280599E5,2.9382803E5,2.1698025E5,2.4615422E5,3.4305266E5,2E0,1.5293408E5,3E0,6E0,3.912932E5,3.7255875E5,2E0,1E0,4E0,1.345617E5,1.5496369E5,1.973366E5,2.4615422E5,1.4452438E5,2.7602153E5,2.468422E5,-1.9585027E4,2.280599E5,2.7498375E5,-2.1819158E4,-1.1870946E4,4.1438038E5,3.912932E5,5.62042E5,2.84E1,2.0013903E1,-1.3411537E3,3.6785764E3,3.470359E2,-1.181362E3,2.605554E3,-1.6993868E3,-4.9574453E3,-8.567282E3,4.272204E3,6.3540767E3,2.967149E4,-1.0545728E3,3.5863064E3,-4.8082905E3,-1.4006583E3,-2.2236111E4,-7.1958804E3,5.9890225E3,-4.228625E3,6.6876333E3,-4.1360758E4,9.168572E3,-1.136961E4,-2.6600346E4,3.1212796E2],"split_indices":[0,3,3,1,1,1,5,3,5,5,3,4,5,9,5,0,0,3,1,1,4,4,0,3,0,0,0,0,3,1,1,0,0,0,0,0,0,0,0,0,0,0,0,0,0,0,0,0,0,0,0,0,0,0,0,0,0],"split_type":[0,0,0,0,0,0,0,0,0,0,0,0,0,0,0,0,0,0,0,0,0,0,0,0,0,0,0,0,0,0,0,0,0,0,0,0,0,0,0,0,0,0,0,0,0,0,0,0,0,0,0,0,0,0,0,0,0],"sum_hessian":[6.173E4,6.028E4,1.45E3,5.991E4,3.7E2,5.13E2,9.37E2,5.9425E4,4.85E2,1.66E2,2.04E2,5.03E2,1E1,6.6E1,8.71E2,5.7567E4,1.858E3,1.33E2,3.52E2,6.1E1,1.05E2,2.01E2,3E0,4.97E2,6E0,4E0,6E0,6.1E1,5E0,1E2,7.71E2,5.6172E4,1.395E3,3.42E2,1.516E3,9.2E1,4.1E1,2.4E2,1.12E2,1.3E1,4.8E1,9.9E1,6E0,1.09E2,9.2E1,1.19E2,3.78E2,4E0,2E0,1.4E1,4.7E1,2E0,3E0,8E1,2E1,6E0,7.65E2],"tree_param":{"num_deleted":"0","num_feature":"17","num_nodes":"57","size_leaf_vector":"1"}},{"base_weights":[-1.6506826E0,1.0086158E2,-1.4381183E3,-3.869763E1,4.0978457E3,-4.5779443E3,6.616268E2,2.6409893E1,-5.550541E3,1.0348589E4,2.9101833E3,-3.2944385E3,-1.3496969E4,6.554257E3,-1.2669957E3,-7.664797E1,2.4929692E3,-4.152921E3,-1.2449252E4,1.1303344E4,-1.0645033E4,9.978799E2,5.998869E3,-6.814835E3,-9.65322E2,-1.0121247E4,-2.5772453E4,6.9138213E3,-2.0478758E4,-4.5346978E3,9.145625E2,3.5782607E0,-1.6042388E3,2.165336E3,5.7277477E1,-2.6293208E3,-6.646832E2,-1.9027942E3,-4.344562E3,9.764375E3,3.203493E3,-1.1395498E4,6.6364062E3,4.7300403E2,-6.8612925E3,3.3541455E3,2.8840005E2,-1.084467E3,-3.6423557E3,2.3413894E3,